~o
<STREAMINFO> 1 39
<VECSIZE> 39<NULLD><PLP_E_D_A_Z><DIAGC>
~s "silst"
<NUMMIXES> 4
<MIXTURE> 1 1.804520e-01
<MEAN> 39
 -4.016861e-01 2.565334e-01 2.481221e-01 5.609806e-01 7.718737e-01 4.612838e-01 4.508891e-01 1.781700e-01 -2.059024e-01 5.924623e-02 -8.909915e-03 -4.340532e-02 1.996668e-01 1.027734e-02 2.781611e-02 3.491593e-02 4.079441e-02 4.957550e-02 5.557611e-02 5.599291e-02 4.915199e-02 4.131027e-02 3.404729e-02 1.354605e-02 -1.720924e-02 2.841914e-02 2.371406e-03 3.011615e-03 3.800320e-03 4.434706e-03 3.613837e-03 3.096998e-03 2.580724e-03 2.628474e-03 2.933651e-03 1.108758e-03 -1.513414e-05 -1.630946e-03 3.889309e-03
<VARIANCE> 39
 4.616009e-02 1.255817e-01 1.289735e-01 1.636172e-01 1.625088e-01 1.857158e-01 1.878548e-01 2.045753e-01 1.808580e-01 1.539375e-01 1.280934e-01 7.742454e-02 3.211605e-02 1.205585e-03 2.721943e-03 3.630060e-03 4.947084e-03 6.269885e-03 7.715407e-03 8.909622e-03 9.960487e-03 1.034574e-02 9.392267e-03 7.866298e-03 3.987821e-03 4.381600e-04 2.539835e-04 5.552318e-04 8.393078e-04 1.178490e-03 1.517477e-03 1.818851e-03 2.065337e-03 2.199517e-03 2.201717e-03 1.964671e-03 1.592241e-03 8.052664e-04 1.680930e-04
<GCONST> -1.151987e+02
<MIXTURE> 2 3.040990e-01
<MEAN> 39
 -3.620179e-01 2.531782e-01 2.702861e-01 6.109312e-01 7.996150e-01 4.544649e-01 3.849333e-01 9.060200e-02 -2.740405e-01 -1.443259e-03 -3.201141e-02 -4.800942e-02 2.082601e-01 -1.243789e-02 -1.038093e-02 -1.397333e-02 -1.729587e-02 -1.488820e-02 -8.611340e-03 -1.865558e-03 2.910628e-03 9.277493e-03 1.626960e-02 1.871788e-02 9.182187e-03 -9.032297e-03 2.904362e-03 3.643444e-03 2.717320e-03 1.532878e-03 1.005450e-03 2.430665e-03 4.958841e-03 6.598713e-03 6.808869e-03 4.569558e-03 7.921868e-04 -2.810730e-03 2.832314e-03
<VARIANCE> 39
 5.791854e-02 1.504954e-01 1.372394e-01 1.741476e-01 1.811456e-01 2.152988e-01 2.025723e-01 2.321313e-01 2.065680e-01 1.832036e-01 1.535157e-01 8.358698e-02 3.342674e-02 1.257439e-03 2.539889e-03 3.348599e-03 4.513156e-03 5.790148e-03 7.151579e-03 8.363894e-03 9.663831e-03 1.010403e-02 9.222412e-03 7.637916e-03 3.785155e-03 2.548394e-04 2.594079e-04 5.501942e-04 8.065699e-04 1.142128e-03 1.460711e-03 1.730088e-03 1.928394e-03 2.126305e-03 2.206034e-03 2.027395e-03 1.683582e-03 8.542867e-04 9.691811e-05
<GCONST> -1.153697e+02
<MIXTURE> 3 2.197043e-01
<MEAN> 39
 -3.825658e-01 2.539386e-01 2.533878e-01 5.567671e-01 7.985157e-01 4.713326e-01 4.949295e-01 2.161904e-01 -1.623226e-01 5.256146e-02 -3.772764e-02 -3.966698e-02 2.347286e-01 -1.868958e-02 -2.560822e-02 -3.355953e-02 -4.054331e-02 -4.444795e-02 -4.315045e-02 -4.076730e-02 -3.573347e-02 -2.602323e-02 -1.699316e-02 -3.234941e-04 2.102511e-02 -2.580578e-02 -5.132837e-04 -3.010194e-03 -3.926046e-03 -4.115362e-03 -6.032870e-03 -6.820671e-03 -8.135753e-03 -7.109330e-03 -3.956918e-03 -2.004791e-03 1.134648e-03 2.686805e-03 -2.398755e-03
<VARIANCE> 39
 5.468233e-02 1.365757e-01 1.252237e-01 1.539257e-01 1.571016e-01 1.840708e-01 1.862525e-01 1.968619e-01 1.819143e-01 1.562372e-01 1.327323e-01 7.774884e-02 2.841450e-02 1.829470e-03 3.420136e-03 4.300287e-03 5.774083e-03 7.119783e-03 8.504388e-03 9.651047e-03 1.062803e-02 1.123096e-02 1.000520e-02 8.275940e-03 4.228000e-03 4.930975e-04 3.120806e-04 6.204273e-04 8.785813e-04 1.199784e-03 1.526239e-03 1.786110e-03 1.995788e-03 2.107637e-03 2.183506e-03 1.940858e-03 1.598272e-03 8.382517e-04 1.315219e-04
<GCONST> -1.134069e+02
<MIXTURE> 4 2.948091e-01
<MEAN> 39
 -3.658424e-01 2.498705e-01 2.493863e-01 5.493641e-01 7.893912e-01 4.359088e-01 4.353527e-01 1.592256e-01 -1.962770e-01 7.794338e-02 1.247433e-02 -2.971684e-02 2.098961e-01 -3.247353e-03 7.733267e-03 1.324085e-02 1.925739e-02 2.472026e-02 2.509122e-02 1.840458e-02 7.637553e-03 -9.687261e-04 -5.307086e-03 -1.303759e-02 -1.036128e-02 5.040400e-03 -2.201246e-03 -4.445762e-03 -4.932501e-03 -4.188142e-03 -4.681300e-03 -4.032412e-03 -4.861054e-03 -5.201759e-03 -4.721382e-03 -5.303778e-03 -2.638807e-03 2.267269e-03 -2.826440e-03
<VARIANCE> 39
 4.711558e-02 1.367420e-01 1.177510e-01 1.433700e-01 1.502146e-01 1.739770e-01 1.676612e-01 1.955188e-01 1.727846e-01 1.471551e-01 1.295172e-01 7.811861e-02 2.532521e-02 8.564578e-04 1.899023e-03 2.780825e-03 3.921276e-03 5.147335e-03 6.433009e-03 7.561069e-03 8.679361e-03 9.082876e-03 8.404456e-03 7.004870e-03 3.563004e-03 2.118438e-04 1.672953e-04 3.773941e-04 6.081245e-04 8.848423e-04 1.162611e-03 1.427002e-03 1.625265e-03 1.816857e-03 1.874227e-03 1.721342e-03 1.468288e-03 7.839571e-04 6.286219e-05
<GCONST> -1.227427e+02
~h "b"
<BEGINHMM>
<NUMSTATES> 5
<STATE> 2
<NUMMIXES> 4
<MIXTURE> 1 2.081582e-01
<MEAN> 39
 -1.842209e-01 3.083268e-01 2.394426e-01 4.458872e-01 6.157541e-01 2.599724e-01 2.523361e-01 -2.157793e-02 -3.111943e-01 -3.048081e-02 -8.898389e-02 -4.926277e-02 2.730182e-01 -2.063576e-02 5.194117e-03 6.940692e-03 2.468878e-02 1.387028e-02 1.721902e-02 1.567423e-02 8.045105e-03 6.127954e-03 -3.444534e-03 -2.492620e-03 -4.808915e-03 -1.982839e-03 6.021034e-03 -1.782618e-02 -1.414196e-02 -4.427433e-03 -3.617181e-02 -2.302748e-02 -1.340715e-02 -1.098903e-03 1.932578e-02 -2.435541e-03 4.025962e-03 6.303226e-03 1.040352e-02
<VARIANCE> 39
 1.520175e-01 2.057691e-01 1.739862e-01 2.163627e-01 2.350883e-01 2.493629e-01 2.367237e-01 2.497875e-01 2.263829e-01 1.903677e-01 1.609434e-01 9.415130e-02 3.649624e-02 3.043374e-03 5.872811e-03 6.488810e-03 7.634383e-03 1.018714e-02 1.046777e-02 1.096746e-02 1.178108e-02 1.274736e-02 1.139545e-02 9.249615e-03 5.330680e-03 5.930554e-04 8.667524e-04 1.877230e-03 2.275655e-03 2.070924e-03 3.784995e-03 3.179894e-03 2.984838e-03 3.154659e-03 3.473485e-03 2.658870e-03 2.264856e-03 1.390445e-03 2.880147e-04
<GCONST> -9.741399e+01
<MIXTURE> 2 3.112164e-01
<MEAN> 39
 9.804601e-01 3.110556e-02 -1.014368e-01 -3.405621e-01 1.169211e-01 1.696628e-02 -1.906857e-01 -2.302572e-01 -2.691562e-01 1.589519e-01 -2.471170e-01 -4.620209e-01 6.621506e-01 -4.968931e-02 1.047072e-01 2.162777e-02 1.005783e-01 -1.435306e-02 -1.624256e-02 3.717797e-02 -5.716143e-03 -1.896091e-02 -6.512190e-02 -2.381348e-02 -5.303676e-03 -2.234816e-02 -5.726690e-02 -2.980638e-02 -1.355369e-02 1.244511e-02 -4.403820e-02 -1.051412e-02 -1.329471e-03 1.682766e-02 4.241422e-02 -9.486924e-03 3.179826e-02 4.208495e-02 7.761136e-03
<VARIANCE> 39
 5.772150e-02 2.773835e-01 3.204754e-01 3.965972e-01 3.238398e-01 4.775138e-01 3.285598e-01 4.285551e-01 3.580165e-01 3.357636e-01 3.019065e-01 2.247521e-01 1.698555e-02 1.215760e-02 8.260497e-03 1.325478e-02 1.871165e-02 2.050155e-02 1.976395e-02 1.864221e-02 2.174692e-02 2.566272e-02 2.162904e-02 1.884929e-02 1.898592e-02 5.385858e-04 1.409151e-03 2.653252e-03 4.556330e-03 4.929936e-03 4.623074e-03 5.298086e-03 4.685574e-03 6.061865e-03 6.066521e-03 5.370697e-03 4.524070e-03 3.704088e-03 1.850955e-04
<GCONST> -7.752916e+01
<MIXTURE> 3 2.662787e-01
<MEAN> 39
 8.272941e-01 4.298208e-01 4.236239e-01 -1.728952e-01 -2.680835e-01 -3.070290e-01 -2.172492e-01 -2.288904e-01 -3.795984e-01 -2.063929e-02 -3.121707e-01 -3.677534e-01 6.552837e-01 -8.966157e-02 4.217318e-02 -3.370884e-02 1.117806e-01 2.163395e-02 9.278748e-04 2.004438e-02 -2.319655e-03 -5.361498e-04 -4.937357e-02 7.130884e-03 2.115983e-02 -3.113132e-02 -4.967638e-02 -6.352621e-02 -4.477054e-02 1.433992e-02 -9.730893e-03 1.067363e-02 6.541144e-06 9.748854e-03 4.775944e-02 3.734781e-03 3.423009e-02 3.787350e-02 5.914852e-03
<VARIANCE> 39
 7.075538e-02 2.271001e-01 3.816184e-01 3.150278e-01 3.488432e-01 3.424170e-01 2.628214e-01 3.494112e-01 3.175958e-01 2.993067e-01 2.835985e-01 1.868729e-01 1.675694e-02 1.059830e-02 1.144011e-02 1.664210e-02 2.194486e-02 1.936093e-02 1.920776e-02 1.673115e-02 2.091846e-02 2.544040e-02 2.293761e-02 1.940582e-02 1.612222e-02 5.906819e-04 1.340171e-03 2.949662e-03 4.892747e-03 4.365813e-03 4.917524e-03 4.292604e-03 4.067094e-03 5.039771e-03 5.542089e-03 5.028532e-03 4.249195e-03 3.311119e-03 1.692922e-04
<GCONST> -7.930154e+01
<MIXTURE> 4 2.143161e-01
<MEAN> 39
 3.226315e-01 4.983558e-01 2.917927e-01 1.667326e-01 9.759457e-02 -1.821973e-01 -3.422452e-02 -1.881629e-01 -4.465026e-01 -1.350131e-01 -1.941479e-01 -1.062605e-01 4.496761e-01 -7.572500e-02 4.703715e-05 -5.403754e-03 5.692228e-02 4.043403e-02 1.761900e-02 -2.097429e-03 -1.693159e-02 -6.780408e-03 -1.937346e-02 1.326557e-02 2.792481e-02 -2.588582e-02 -2.819215e-03 -2.867253e-02 -1.538522e-02 1.195106e-03 -1.084844e-02 4.536240e-03 -3.309277e-03 3.095648e-03 2.562301e-02 7.551250e-03 6.893007e-03 2.318099e-04 9.112137e-03
<VARIANCE> 39
 1.121448e-01 1.790482e-01 2.256789e-01 2.280224e-01 2.759040e-01 2.493032e-01 2.209477e-01 2.645058e-01 2.385005e-01 2.193219e-01 1.833297e-01 1.210181e-01 2.676231e-02 3.906504e-03 8.807514e-03 9.546865e-03 1.126172e-02 1.202340e-02 1.208218e-02 1.127861e-02 1.334090e-02 1.512864e-02 1.426139e-02 1.219670e-02 8.066445e-03 4.899700e-04 8.592851e-04 2.080915e-03 2.507255e-03 2.381880e-03 2.792368e-03 2.536804e-03 2.562268e-03 3.017260e-03 3.672540e-03 3.116693e-03 2.672134e-03 1.765634e-03 1.716367e-04
<GCONST> -9.463985e+01
<STATE> 3
<NUMMIXES> 4
<MIXTURE> 1 1.460151e-01
<MEAN> 39
 -1.452698e-01 3.667405e-01 2.193734e-01 6.741819e-01 3.205162e-01 9.179215e-02 1.193732e-02 -2.339941e-01 -3.347796e-01 -2.350654e-01 -1.429179e-01 -4.368744e-02 3.447497e-01 6.324575e-03 -2.266084e-01 -2.261032e-01 -1.068826e-01 -1.512957e-01 -2.734381e-02 8.426355e-04 6.992947e-02 2.243660e-01 4.491454e-02 6.367909e-02 4.479390e-02 8.117393e-02 6.805012e-02 -7.562478e-02 -5.154920e-02 -1.244008e-01 -4.626067e-02 -4.407310e-03 1.005798e-02 3.130196e-02 4.280671e-02 3.661269e-02 1.386683e-02 -7.989574e-03 3.717256e-02
<VARIANCE> 39
 1.007071e-01 1.432788e-01 1.746022e-01 1.982745e-01 3.047492e-01 2.577556e-01 2.225131e-01 2.360192e-01 2.402837e-01 2.186021e-01 1.606383e-01 1.038857e-01 3.820064e-02 1.913970e-02 3.032010e-02 4.331688e-02 3.906748e-02 5.038366e-02 4.949413e-02 3.537553e-02 4.288971e-02 3.571372e-02 3.095960e-02 2.723813e-02 2.044283e-02 3.579990e-03 2.074639e-03 4.901816e-03 5.306475e-03 7.157614e-03 7.694435e-03 6.983720e-03 5.439792e-03 6.195343e-03 5.435822e-03 5.393149e-03 4.210832e-03 3.745621e-03 2.744357e-04
<GCONST> -6.947044e+01
<MIXTURE> 2 3.382593e-01
<MEAN> 39
 5.943415e-01 4.434967e-01 3.232900e-01 2.201172e-01 -1.473332e-01 -2.971900e-01 -2.322193e-01 -2.937921e-01 -4.024582e-01 -1.840605e-01 -3.018561e-01 -2.888802e-01 5.813765e-01 -1.275378e-01 -1.285325e-01 -1.918749e-01 3.475117e-02 -6.569022e-03 7.145137e-02 3.179997e-02 3.611922e-02 1.587473e-01 -4.338514e-03 7.358859e-02 6.618562e-02 1.785052e-02 4.010131e-03 -1.078482e-01 -7.006355e-02 -8.979884e-02 -1.320383e-02 2.989109e-02 1.962063e-02 3.758885e-02 6.414082e-02 3.641006e-02 3.359536e-02 1.854804e-02 2.439895e-02
<VARIANCE> 39
 9.517675e-02 2.234095e-01 3.395609e-01 2.719229e-01 3.661366e-01 3.504396e-01 2.634746e-01 3.624258e-01 3.164752e-01 2.949944e-01 2.552620e-01 1.830490e-01 2.234020e-02 1.117980e-02 3.213656e-02 4.701823e-02 3.978498e-02 4.170910e-02 4.116415e-02 3.219965e-02 4.529643e-02 4.013327e-02 3.505594e-02 3.107975e-02 2.510698e-02 1.242584e-03 1.996374e-03 4.216938e-03 5.612023e-03 6.114677e-03 7.533806e-03 7.025338e-03 6.023020e-03 7.449910e-03 6.740802e-03 6.540453e-03 5.237319e-03 4.828234e-03 2.294081e-04
<GCONST> -6.653510e+01
<MIXTURE> 3 3.108093e-01
<MEAN> 39
 5.279457e-01 3.565791e-01 -6.034308e-02 9.637944e-03 -8.390081e-02 -8.194959e-02 5.408376e-05 -1.765040e-01 -1.763266e-01 -6.012655e-02 -1.338331e-01 -1.692308e-01 5.690557e-01 -2.297696e-01 -1.004280e-01 3.341516e-02 2.170892e-01 -9.706170e-02 -5.789604e-02 -9.582425e-03 1.270466e-02 7.836790e-02 -8.117467e-02 6.138340e-02 1.058916e-01 -8.461101e-05 1.024787e-02 -4.667373e-02 2.202082e-02 -5.904139e-02 -4.520692e-02 -1.528159e-03 -2.406058e-02 6.838315e-03 4.551573e-03 2.098620e-02 2.252409e-02 5.217998e-03 2.082495e-02
<VARIANCE> 39
 1.409985e-01 2.255405e-01 3.196389e-01 4.137602e-01 2.956523e-01 3.469163e-01 2.533575e-01 2.880156e-01 2.965475e-01 2.802685e-01 2.153532e-01 1.634872e-01 2.017225e-02 1.261878e-02 2.846263e-02 4.006661e-02 3.823440e-02 4.242153e-02 3.809749e-02 3.048026e-02 3.557222e-02 3.364565e-02 3.050535e-02 2.790356e-02 2.133649e-02 7.649033e-04 3.107655e-03 3.433242e-03 5.695724e-03 7.223699e-03 5.908827e-03 5.230801e-03 4.657028e-03 5.187792e-03 5.836494e-03 5.114837e-03 4.284772e-03 3.192574e-03 1.719404e-04
<GCONST> -7.042699e+01
<MIXTURE> 4 2.048891e-01
<MEAN> 39
 -3.732750e-01 7.884064e-02 1.715359e-02 5.568394e-01 5.042862e-01 2.727536e-01 3.400141e-01 2.793851e-02 -2.898818e-02 -3.692625e-02 -3.500656e-02 3.179691e-02 3.288959e-01 -2.042981e-02 -1.358381e-01 -7.442103e-02 2.243915e-02 -2.037370e-01 -1.370574e-01 -1.057387e-01 -2.256175e-02 1.074731e-01 -1.885558e-02 5.587044e-02 5.649830e-02 5.762949e-02 7.457211e-02 -5.850351e-03 6.330909e-03 -8.972827e-02 -8.927152e-02 -3.770678e-02 -4.012391e-02 -1.332839e-03 -8.443879e-03 8.709738e-03 1.329242e-02 -6.165322e-03 3.221934e-02
<VARIANCE> 39
 1.101607e-01 1.717873e-01 1.894994e-01 1.973528e-01 2.588768e-01 2.469856e-01 2.277155e-01 2.269230e-01 1.968725e-01 1.708777e-01 1.292546e-01 8.562879e-02 3.805455e-02 1.662369e-02 2.223539e-02 3.603042e-02 2.659008e-02 4.419010e-02 3.583254e-02 2.784830e-02 3.069063e-02 2.691681e-02 2.146623e-02 1.902693e-02 1.317290e-02 2.621358e-03 2.743114e-03 4.817395e-03 6.195792e-03 6.803866e-03 5.754607e-03 5.640183e-03 4.740912e-03 5.378223e-03 5.009204e-03 3.910615e-03 3.526984e-03 2.586618e-03 2.774016e-04
<GCONST> -7.536783e+01
<STATE> 4
<NUMMIXES> 4
<MIXTURE> 1 2.721789e-01
<MEAN> 39
 2.165715e-01 -3.071427e-02 -3.496788e-01 2.260382e-01 -2.068163e-01 -1.993834e-01 -4.993990e-02 2.792540e-02 2.061368e-01 -2.014741e-01 -7.772830e-02 6.945808e-02 6.428145e-01 4.361957e-02 -2.362432e-01 -2.236142e-01 -2.361899e-01 -1.118028e-01 3.671265e-02 4.913596e-02 1.158493e-01 1.542239e-01 2.596732e-02 8.766064e-02 5.596944e-02 7.956339e-02 4.061115e-02 -1.964258e-02 2.105577e-02 -8.404139e-02 8.392274e-03 3.234934e-02 1.486369e-02 -8.296179e-03 -4.152310e-02 3.172136e-02 1.225841e-02 -2.390611e-02 9.527259e-03
<VARIANCE> 39
 1.313196e-01 1.870096e-01 1.582594e-01 2.090935e-01 1.979379e-01 2.164186e-01 2.052577e-01 2.285708e-01 2.391858e-01 1.602044e-01 1.346779e-01 1.134635e-01 1.359237e-02 2.767043e-02 6.069117e-02 5.019418e-02 6.917413e-02 6.522230e-02 7.869218e-02 5.621408e-02 6.127587e-02 5.371107e-02 4.792487e-02 3.863221e-02 3.572637e-02 3.099573e-03 2.176117e-03 4.851862e-03 4.057283e-03 5.106036e-03 6.059900e-03 5.168692e-03 5.202814e-03 5.585367e-03 5.225670e-03 4.211559e-03 3.768687e-03 3.610228e-03 1.605502e-04
<GCONST> -6.843524e+01
<MIXTURE> 2 2.796333e-01
<MEAN> 39
 2.421089e-02 -3.777606e-02 4.861802e-01 4.873360e-01 -6.566522e-01 -3.325138e-01 -1.291718e-01 -2.150225e-01 -2.163503e-01 -2.208115e-01 1.192236e-01 5.923123e-02 6.517908e-01 -3.649910e-02 -4.271334e-02 1.071040e-01 -2.184479e-01 -2.389867e-01 -2.915317e-03 -3.290910e-02 2.929299e-02 4.857688e-02 9.512714e-02 1.126180e-01 6.144807e-02 4.771342e-02 6.818027e-02 3.654420e-02 -3.217420e-02 -1.342863e-01 2.429845e-02 2.599800e-02 -6.925418e-03 1.473527e-02 1.053364e-02 4.664826e-02 -2.080289e-02 -2.573144e-02 8.544053e-03
<VARIANCE> 39
 1.113831e-01 1.367298e-01 4.450372e-01 2.937612e-01 4.801686e-01 2.729163e-01 2.274884e-01 2.395481e-01 2.262172e-01 2.244161e-01 1.959902e-01 1.224167e-01 1.513695e-02 3.368061e-02 2.834471e-02 6.390120e-02 5.224328e-02 4.578247e-02 3.904197e-02 3.642083e-02 4.109389e-02 4.825175e-02 3.927266e-02 3.191361e-02 2.301855e-02 1.537789e-03 3.110292e-03 3.880764e-03 5.431922e-03 7.186563e-03 8.094629e-03 5.891509e-03 5.555214e-03 5.783038e-03 5.646173e-03 5.562937e-03 4.670519e-03 3.607688e-03 1.716678e-04
<GCONST> -6.763689e+01
<MIXTURE> 3 2.223954e-01
<MEAN> 39
 5.150416e-01 -4.235955e-01 -8.113472e-01 -4.044366e-01 -9.661668e-02 2.569609e-01 -1.958240e-01 -1.216214e-01 3.818341e-01 3.193786e-01 1.524052e-01 -3.201365e-01 7.529016e-01 2.852724e-02 -3.245970e-01 -2.888826e-01 -2.351275e-01 2.994023e-02 1.283777e-01 1.427860e-02 7.645929e-02 1.855009e-01 8.335640e-02 3.780594e-02 -6.892201e-02 8.386195e-02 1.399736e-03 1.568267e-03 6.137206e-02 1.134379e-02 3.272876e-02 -1.582313e-02 2.587217e-02 5.315947e-03 -5.747745e-02 -3.862350e-02 -3.473555e-02 1.077161e-02 -4.503108e-03
<VARIANCE> 39
 1.013820e-01 2.034431e-01 2.039398e-01 2.978362e-01 1.961968e-01 3.494192e-01 2.984959e-01 2.578427e-01 2.513667e-01 2.185662e-01 2.807063e-01 1.884462e-01 1.014740e-02 2.559369e-02 3.959585e-02 4.506167e-02 6.123196e-02 5.519642e-02 7.272389e-02 5.225755e-02 6.499990e-02 5.037734e-02 4.310888e-02 4.181748e-02 4.203002e-02 3.010731e-03 2.204677e-03 4.211841e-03 4.483688e-03 5.119386e-03 5.398977e-03 5.312427e-03 5.312799e-03 5.872231e-03 5.411319e-03 4.803546e-03 5.301158e-03 4.054730e-03 2.730717e-04
<GCONST> -6.556749e+01
<MIXTURE> 4 2.257683e-01
<MEAN> 39
 -3.635011e-01 -3.072911e-01 1.688535e-01 6.277395e-01 -4.325456e-01 -3.650997e-01 -6.280901e-02 -1.290149e-01 1.478206e-01 -6.968529e-02 2.190914e-01 2.419708e-01 5.345891e-01 4.372005e-02 -5.131608e-02 1.117897e-01 -1.381923e-01 -2.766153e-01 -8.220002e-02 -1.270607e-01 -5.444553e-02 -1.950006e-02 -2.329852e-02 6.644310e-02 4.850457e-02 8.822727e-02 8.348899e-02 7.346144e-02 1.003326e-02 -1.330919e-01 1.907542e-02 5.241599e-02 -8.367801e-04 1.074267e-02 -4.765758e-02 1.591789e-02 -2.383020e-02 -4.055190e-02 9.228824e-03
<VARIANCE> 39
 1.501013e-01 1.787339e-01 5.374143e-01 2.729923e-01 4.353801e-01 2.940792e-01 2.935665e-01 2.817933e-01 2.599873e-01 2.050110e-01 1.642105e-01 1.207018e-01 2.453620e-02 3.493701e-02 3.127920e-02 6.589422e-02 6.566344e-02 6.560481e-02 4.670613e-02 3.706538e-02 3.878659e-02 3.707146e-02 2.706042e-02 2.908522e-02 1.958005e-02 3.668982e-03 4.713437e-03 4.824448e-03 7.184048e-03 7.433201e-03 1.001052e-02 7.271102e-03 7.564364e-03 7.030198e-03 6.651051e-03 5.336498e-03 5.151962e-03 3.550156e-03 4.120905e-04
<GCONST> -6.239487e+01
<TRANSP> 5
 0.000000e+00 1.000000e+00 0.000000e+00 0.000000e+00 0.000000e+00
 0.000000e+00 6.255881e-01 3.744119e-01 0.000000e+00 0.000000e+00
 0.000000e+00 0.000000e+00 4.682717e-01 5.317283e-01 0.000000e+00
 0.000000e+00 0.000000e+00 0.000000e+00 3.971773e-01 6.028227e-01
 0.000000e+00 0.000000e+00 0.000000e+00 0.000000e+00 0.000000e+00
<ENDHMM>
~h "c"
<BEGINHMM>
<NUMSTATES> 5
<STATE> 2
<NUMMIXES> 4
<MIXTURE> 1 2.310012e-01
<MEAN> 39
 -4.438286e-01 7.883935e-01 -6.041091e-01 3.462714e-01 -2.290769e-01 -1.895634e-01 1.152487e-01 -3.285189e-02 2.551111e-01 4.497682e-02 -5.155870e-02 2.077343e-02 5.111212e-01 -2.676130e-01 1.584515e-01 -9.254719e-02 1.183521e-01 -2.145297e-02 -1.537777e-02 4.913268e-02 -1.808411e-02 3.692359e-02 -1.889471e-02 1.889500e-02 4.970035e-02 -8.181512e-03 -6.346027e-04 -5.577545e-02 4.437935e-02 -7.480046e-03 2.926917e-02 -7.248800e-04 -9.621811e-03 5.573700e-03 -1.865139e-02 -5.980605e-03 7.589988e-04 7.211644e-03 8.652710e-03
<VARIANCE> 39
 2.180427e-01 2.886598e-01 4.052484e-01 3.590075e-01 5.108571e-01 3.486935e-01 3.267673e-01 3.149827e-01 2.643800e-01 2.315083e-01 2.256242e-01 1.168404e-01 3.422945e-02 1.752551e-02 2.294416e-02 2.589730e-02 2.144088e-02 2.408442e-02 2.277800e-02 2.196461e-02 2.405349e-02 2.332708e-02 2.094108e-02 1.742096e-02 1.349975e-02 1.760313e-03 1.930779e-03 4.037569e-03 3.228350e-03 3.706418e-03 3.616570e-03 3.677808e-03 3.881356e-03 4.157661e-03 3.945581e-03 3.396053e-03 3.151712e-03 2.057832e-03 1.060926e-04
<GCONST> -7.718431e+01
<MIXTURE> 2 2.751935e-01
<MEAN> 39
 4.679413e-01 3.044215e-01 -1.364198e-01 -1.746488e-01 -1.542007e-01 -2.916431e-01 -2.595048e-01 -2.833684e-01 1.124496e-01 2.723183e-01 -1.718550e-01 -1.453562e-01 7.172663e-01 -1.827794e-01 2.423288e-01 -6.197794e-02 1.193855e-01 3.645373e-02 -4.582511e-02 7.473382e-02 -2.815257e-02 -3.281575e-03 -8.230425e-02 -2.163146e-02 3.776737e-02 -2.541176e-02 -8.334833e-02 2.370690e-02 -2.544330e-02 2.931292e-02 5.232196e-03 2.499747e-03 1.222787e-02 1.360568e-02 3.759902e-04 -3.147883e-02 8.753807e-03 2.663167e-02 -1.424003e-03
<VARIANCE> 39
 1.259814e-01 2.507232e-01 3.403701e-01 2.691647e-01 3.604678e-01 4.138879e-01 3.584735e-01 4.090276e-01 3.342599e-01 3.044202e-01 2.918194e-01 2.098959e-01 1.542750e-02 1.713934e-02 1.846370e-02 1.866720e-02 2.044624e-02 2.781535e-02 2.678454e-02 2.921436e-02 2.974813e-02 2.617754e-02 2.585480e-02 2.280144e-02 2.036784e-02 3.746455e-04 2.080838e-03 3.873445e-03 3.238459e-03 3.001010e-03 3.771158e-03 4.144817e-03 4.339040e-03 4.618331e-03 4.410071e-03 4.119372e-03 3.686351e-03 3.109286e-03 8.154742e-05
<GCONST> -7.714262e+01
<MIXTURE> 3 2.444763e-01
<MEAN> 39
 3.123316e-01 4.945988e-01 -1.483589e-01 1.617115e-01 -3.663978e-01 -5.139875e-01 -1.741881e-01 -4.344222e-02 -1.857209e-02 -2.537839e-01 -2.896475e-01 -6.084906e-03 7.185262e-01 -2.015950e-01 2.615979e-01 -1.218084e-01 1.830134e-01 -3.471604e-02 6.552377e-02 5.153767e-03 -4.248527e-02 -5.218942e-02 -5.624255e-02 -9.842779e-03 -2.171533e-02 -3.395035e-02 -6.807908e-02 -1.076743e-02 -1.958659e-02 -5.216951e-03 6.892957e-03 1.187799e-02 1.518744e-02 -4.515632e-03 2.107060e-02 2.357614e-02 2.653681e-02 2.235118e-02 -3.536926e-03
<VARIANCE> 39
 1.335468e-01 3.009743e-01 4.490143e-01 2.915607e-01 4.392344e-01 3.818603e-01 3.605291e-01 4.458687e-01 4.361813e-01 3.118347e-01 2.806544e-01 2.377857e-01 1.347849e-02 1.864566e-02 2.273889e-02 2.321486e-02 2.700822e-02 3.392228e-02 3.082752e-02 3.202453e-02 3.335665e-02 3.580613e-02 2.992071e-02 2.583248e-02 2.460531e-02 4.542217e-04 2.140122e-03 4.326727e-03 3.817310e-03 3.793019e-03 4.147468e-03 4.636119e-03 4.569199e-03 5.404172e-03 5.724980e-03 4.790879e-03 4.385205e-03 3.914474e-03 8.984739e-05
<GCONST> -7.192861e+01
<MIXTURE> 4 2.493109e-01
<MEAN> 39
 -4.342869e-01 5.723684e-01 6.362647e-03 3.862497e-01 2.286161e-01 1.212840e-01 3.080897e-03 -1.424485e-01 -1.661313e-01 -2.130428e-01 -5.169677e-02 4.263838e-02 4.363246e-01 -2.510673e-01 6.784221e-02 -7.062953e-02 7.438799e-02 -4.574878e-04 -1.787014e-02 -1.152432e-02 1.608754e-02 5.813373e-02 -3.854149e-02 3.078471e-02 5.958449e-02 -3.141525e-03 -1.329171e-02 -2.900406e-02 -1.382864e-02 -6.822131e-03 -7.888626e-03 -2.223306e-02 2.584417e-03 1.593104e-02 2.423274e-02 2.363034e-02 6.085495e-03 2.396788e-03 7.624499e-03
<VARIANCE> 39
 2.174484e-01 3.455391e-01 3.708881e-01 3.270349e-01 4.475479e-01 3.431197e-01 3.790232e-01 3.207534e-01 2.735127e-01 2.372962e-01 2.123032e-01 1.231853e-01 4.946222e-02 2.748814e-02 2.917594e-02 2.857849e-02 2.596675e-02 2.795384e-02 2.850579e-02 2.638886e-02 2.759990e-02 2.717752e-02 2.341388e-02 1.959652e-02 1.390473e-02 1.415476e-03 3.285224e-03 5.163297e-03 3.808391e-03 3.580556e-03 4.007382e-03 3.777959e-03 4.179020e-03 4.190425e-03 4.201846e-03 3.593484e-03 3.222124e-03 2.070022e-03 1.299158e-04
<GCONST> -7.341445e+01
<STATE> 3
<NUMMIXES> 4
<MIXTURE> 1 2.570435e-01
<MEAN> 39
 -7.819416e-01 1.195849e+00 -5.825908e-01 4.237310e-01 -3.790232e-01 -5.941549e-01 8.365740e-02 -8.247430e-02 3.068240e-01 5.873249e-02 -6.131652e-02 1.910987e-01 6.081846e-01 -2.009941e-01 -2.292813e-02 2.978174e-02 1.016065e-01 7.920257e-02 1.590765e-02 1.931904e-02 9.449758e-04 -2.902428e-02 -3.257174e-02 3.057540e-02 4.439746e-02 -1.442370e-02 5.173073e-02 -9.940659e-02 3.879733e-02 -1.013860e-02 4.100524e-02 2.773954e-02 -2.013036e-02 -3.877287e-04 -3.039085e-02 -1.780977e-02 -3.515956e-03 -1.010649e-02 5.083817e-03
<VARIANCE> 39
 1.057274e-01 1.670267e-01 2.640527e-01 2.831412e-01 3.893636e-01 3.086194e-01 2.845593e-01 2.811165e-01 2.447925e-01 2.325013e-01 2.271331e-01 8.927143e-02 1.256908e-02 1.228099e-02 2.841109e-02 1.833700e-02 1.626308e-02 2.145426e-02 2.041991e-02 1.996185e-02 2.310500e-02 2.124031e-02 2.220679e-02 1.971811e-02 9.356217e-03 4.787683e-04 2.363889e-03 3.230138e-03 2.873779e-03 2.959197e-03 3.328181e-03 3.301793e-03 3.730928e-03 3.743351e-03 3.590722e-03 3.795525e-03 3.604096e-03 1.972125e-03 7.283501e-05
<GCONST> -8.477303e+01
<MIXTURE> 2 2.824824e-01
<MEAN> 39
 -1.208781e+00 7.345470e-01 -2.231034e-01 9.386736e-01 1.237664e-01 -2.055548e-01 -1.159202e-01 -3.212582e-01 -1.367532e-01 -3.300540e-01 -2.823495e-02 2.630546e-01 5.837207e-01 -4.868647e-02 -1.749592e-01 -1.661286e-02 9.197758e-03 8.487383e-02 4.568808e-02 3.846053e-02 5.949503e-02 2.019086e-02 1.336988e-02 2.176418e-02 -3.809118e-03 -7.593264e-03 5.781854e-02 -2.067125e-02 -1.164559e-02 -4.890276e-02 -1.540573e-02 -9.383501e-03 1.093820e-02 2.619784e-02 2.164588e-02 2.036829e-02 -2.165840e-03 -1.201358e-02 -1.367707e-04
<VARIANCE> 39
 9.544213e-02 1.870165e-01 2.061820e-01 2.786843e-01 3.001254e-01 2.685898e-01 2.900071e-01 2.490872e-01 2.329123e-01 1.960682e-01 1.919749e-01 8.287340e-02 1.338307e-02 9.531324e-03 1.499470e-02 1.161099e-02 1.329374e-02 1.260671e-02 1.262199e-02 1.643763e-02 1.685520e-02 1.737766e-02 1.632418e-02 1.450788e-02 5.722285e-03 3.917383e-04 1.771435e-03 2.215586e-03 1.968732e-03 2.492850e-03 2.423739e-03 2.573388e-03 2.939453e-03 3.180578e-03 3.126370e-03 3.086640e-03 2.572844e-03 1.122546e-03 7.283515e-05
<GCONST> -9.393668e+01
<MIXTURE> 3 2.169797e-01
<MEAN> 39
 -1.481564e+00 6.063774e-01 -3.139697e-01 6.817477e-01 3.611523e-01 -9.925113e-02 1.209613e-01 1.356575e-02 1.274068e-01 -2.005172e-01 3.217202e-02 2.332411e-01 5.339780e-01 -6.759052e-02 -1.727084e-01 -6.025973e-02 -2.892062e-02 7.799936e-03 -3.336284e-02 9.531568e-03 9.695625e-02 7.139087e-02 3.850942e-02 2.765754e-02 2.311242e-03 1.503801e-02 9.770410e-02 -5.202711e-02 2.772831e-03 -4.661338e-02 -9.425083e-03 1.180063e-04 -5.468230e-03 1.161859e-02 4.161197e-03 2.345780e-02 -5.360105e-03 -1.940112e-02 -4.552360e-03
<VARIANCE> 39
 1.680305e-01 2.137568e-01 3.109178e-01 3.343755e-01 3.182206e-01 3.544491e-01 3.860462e-01 2.779089e-01 2.490885e-01 2.342550e-01 1.997936e-01 1.134634e-01 2.577720e-02 1.824834e-02 2.335763e-02 1.958867e-02 1.929408e-02 2.323778e-02 1.969635e-02 1.982786e-02 1.966242e-02 1.891555e-02 1.624629e-02 1.429609e-02 7.517080e-03 1.536445e-03 2.759569e-03 3.937451e-03 3.656969e-03 3.591283e-03 3.741838e-03 3.943425e-03 3.759215e-03 3.885507e-03 3.545725e-03 3.488820e-03 2.879816e-03 1.723071e-03 1.951036e-04
<GCONST> -8.048244e+01
<MIXTURE> 4 2.434727e-01
<MEAN> 39
 -8.339307e-01 1.242777e+00 -2.580148e-01 6.727284e-01 -1.232346e-01 -4.522572e-01 -1.059256e-01 -3.949668e-01 -1.638046e-01 -3.651100e-01 -1.951583e-01 2.487468e-01 6.294873e-01 -2.098378e-01 -4.879227e-02 1.261642e-02 1.149052e-01 1.091422e-01 9.811118e-03 -1.078811e-03 9.233689e-03 -2.670586e-02 -5.800367e-02 1.397114e-02 5.436337e-02 -1.287811e-02 6.464218e-02 -1.068740e-01 1.109769e-02 -4.068810e-02 6.675980e-03 1.297739e-02 -2.551154e-03 2.908828e-02 1.944806e-02 3.365316e-02 1.341340e-02 -1.937452e-02 2.374302e-03
<VARIANCE> 39
 1.108281e-01 1.730550e-01 2.566174e-01 3.127867e-01 3.704149e-01 3.244886e-01 3.178484e-01 2.978659e-01 2.610381e-01 2.308341e-01 2.204447e-01 1.092372e-01 1.290538e-02 1.489063e-02 2.859973e-02 2.073237e-02 1.673588e-02 2.039264e-02 2.211013e-02 2.048472e-02 2.479974e-02 2.306599e-02 2.212759e-02 2.093488e-02 9.445615e-03 5.229417e-04 2.978177e-03 3.231812e-03 2.950861e-03 3.422306e-03 3.650159e-03 3.586110e-03 4.247291e-03 4.670601e-03 4.160724e-03 4.146176e-03 3.752193e-03 2.328933e-03 7.676917e-05
<GCONST> -8.205847e+01
<STATE> 4
<NUMMIXES> 4
<MIXTURE> 1 2.461299e-01
<MEAN> 39
 -4.577895e-01 -2.518088e-01 -3.579942e-01 2.708645e-01 7.629192e-01 -9.052160e-02 -2.951120e-01 1.604162e-02 9.795389e-02 -4.227296e-02 -9.440488e-02 3.615755e-02 5.424114e-01 3.061889e-01 3.223554e-02 -5.154264e-02 -1.988736e-01 -6.613820e-02 3.607778e-02 -5.341601e-02 -9.833901e-02 -3.616370e-02 3.082314e-02 -1.619729e-02 -4.283641e-02 5.068875e-02 2.233379e-02 3.287923e-02 -2.229605e-02 -5.224473e-02 -7.530051e-02 5.639877e-03 1.620007e-02 -8.801844e-04 1.618371e-02 8.915395e-03 1.715573e-02 6.472853e-04 1.835647e-02
<VARIANCE> 39
 1.224545e-01 2.096981e-01 2.059634e-01 2.797613e-01 2.810676e-01 3.798252e-01 2.940734e-01 2.992321e-01 2.560879e-01 2.617566e-01 2.539946e-01 1.387587e-01 1.586169e-02 1.287310e-02 2.629702e-02 1.946794e-02 2.920779e-02 3.220294e-02 3.223391e-02 3.355911e-02 3.682924e-02 3.507098e-02 2.858670e-02 2.193154e-02 1.531137e-02 1.521761e-03 2.091556e-03 3.313125e-03 2.933889e-03 4.136035e-03 4.394469e-03 4.383520e-03 4.487844e-03 5.156209e-03 4.653096e-03 4.211748e-03 3.542531e-03 2.486105e-03 1.727799e-04
<GCONST> -7.599390e+01
<MIXTURE> 2 2.553320e-01
<MEAN> 39
 -9.814709e-01 -3.963670e-01 -4.859434e-01 3.099992e-01 3.330856e-01 -1.492755e-02 1.824908e-01 3.971217e-01 2.814168e-01 2.810423e-03 1.480995e-01 1.174316e-01 4.934655e-01 1.232592e-01 -1.911771e-01 3.333789e-02 -3.577368e-02 1.327817e-01 7.571084e-02 -1.132151e-02 -2.651388e-02 -7.067995e-02 -4.171166e-02 -2.167738e-02 1.792120e-02 -3.834896e-03 4.390561e-02 6.482419e-02 7.510742e-03 1.755380e-03 -1.398472e-02 -2.254722e-03 -2.658020e-02 -6.355100e-02 -3.564424e-02 -2.077556e-02 -1.563903e-02 9.027774e-03 1.331556e-02
<VARIANCE> 39
 1.038045e-01 3.482378e-01 1.913854e-01 2.573073e-01 3.103984e-01 3.279643e-01 4.036850e-01 2.774173e-01 2.885094e-01 2.245769e-01 2.067213e-01 1.468657e-01 1.030122e-02 1.292815e-02 2.703503e-02 1.756439e-02 1.670810e-02 2.088248e-02 2.269783e-02 2.595544e-02 2.618613e-02 2.380340e-02 2.305166e-02 1.967750e-02 1.661584e-02 6.176946e-04 2.497972e-03 3.338875e-03 2.604014e-03 4.053755e-03 3.838914e-03 4.395549e-03 4.870607e-03 4.763019e-03 4.300500e-03 3.551092e-03 2.988757e-03 2.317958e-03 1.583759e-04
<GCONST> -8.043310e+01
<MIXTURE> 3 2.567449e-01
<MEAN> 39
 -1.372106e+00 9.209554e-02 -5.864938e-01 4.638730e-01 1.181758e-01 -2.080677e-01 1.692592e-01 2.869985e-01 4.010815e-01 7.046708e-02 1.840838e-01 1.643872e-01 5.346925e-01 8.082671e-02 -2.093580e-01 -2.386105e-02 -7.630792e-02 3.658198e-02 -1.288354e-02 7.895987e-03 9.457675e-02 4.866807e-02 3.751122e-02 6.180212e-03 -2.313542e-02 -8.036930e-03 7.326771e-02 1.297611e-02 2.627018e-02 -1.042719e-02 2.407055e-02 1.401062e-02 -2.248176e-02 -3.672966e-02 -3.776747e-02 -2.232479e-02 -2.560976e-02 -2.918532e-07 -2.371905e-04
<VARIANCE> 39
 1.500584e-01 2.578198e-01 2.273619e-01 3.095346e-01 2.909111e-01 3.062620e-01 3.370098e-01 2.915279e-01 2.324921e-01 1.952339e-01 1.909740e-01 1.246217e-01 1.376642e-02 1.274862e-02 1.933949e-02 1.524590e-02 1.745307e-02 2.159368e-02 1.849675e-02 2.079916e-02 2.132313e-02 1.897291e-02 1.708089e-02 1.410506e-02 9.135259e-03 7.467116e-04 2.536751e-03 3.263313e-03 2.861411e-03 3.344417e-03 4.095398e-03 4.687420e-03 4.171355e-03 3.975505e-03 3.642741e-03 3.354550e-03 2.855210e-03 2.008518e-03 2.064248e-04
<GCONST> -8.335410e+01
<MIXTURE> 4 2.417618e-01
<MEAN> 39
 -6.881717e-01 -5.536519e-01 -1.717205e-01 5.043181e-01 5.343519e-01 9.168923e-02 1.696734e-01 -3.689329e-02 -2.716225e-01 -4.742829e-01 -1.208399e-02 4.359571e-01 5.562533e-01 1.719848e-01 -1.057607e-01 -5.112953e-03 -2.850043e-02 4.561260e-02 1.465106e-02 -5.243891e-02 -6.335686e-02 -5.000087e-02 -3.684194e-02 -2.799397e-02 5.690297e-03 2.338464e-02 3.527140e-02 5.921331e-02 -4.403234e-02 -2.528458e-02 -5.702709e-02 -2.497114e-02 -3.167649e-03 -9.520046e-04 3.606802e-02 3.457534e-02 5.013690e-03 -3.095810e-02 1.248521e-02
<VARIANCE> 39
 1.152655e-01 3.622246e-01 1.876071e-01 2.348711e-01 2.858845e-01 3.503577e-01 3.858897e-01 3.095631e-01 3.168698e-01 2.309622e-01 3.224083e-01 1.703678e-01 1.114412e-02 1.478433e-02 2.865882e-02 1.600417e-02 1.944426e-02 2.716500e-02 2.820587e-02 2.900881e-02 2.865747e-02 2.622855e-02 2.241680e-02 1.911983e-02 1.599205e-02 1.107816e-03 2.148666e-03 3.175224e-03 2.879526e-03 4.033884e-03 3.459469e-03 4.380327e-03 4.745886e-03 5.301347e-03 4.287473e-03 3.788937e-03 3.594450e-03 2.642920e-03 1.444340e-04
<GCONST> -7.788571e+01
<TRANSP> 5
 0.000000e+00 1.000000e+00 0.000000e+00 0.000000e+00 0.000000e+00
 0.000000e+00 7.356044e-01 2.643956e-01 0.000000e+00 0.000000e+00
 0.000000e+00 0.000000e+00 7.680501e-01 2.319499e-01 0.000000e+00
 0.000000e+00 0.000000e+00 0.000000e+00 7.749990e-01 2.250010e-01
 0.000000e+00 0.000000e+00 0.000000e+00 0.000000e+00 0.000000e+00
<ENDHMM>
~h "d"
<BEGINHMM>
<NUMSTATES> 5
<STATE> 2
<NUMMIXES> 4
<MIXTURE> 1 1.939947e-01
<MEAN> 39
 3.282390e-01 3.037333e-01 1.422900e-01 3.163473e-02 8.776762e-02 -1.155512e-01 1.876856e-02 3.984376e-02 -1.768564e-01 2.410254e-02 -2.116384e-01 -2.019269e-01 4.491395e-01 -1.956208e-01 -3.332292e-02 -7.251824e-02 1.041674e-01 -3.083221e-02 3.515236e-03 2.281632e-02 -1.430740e-02 9.043128e-02 -3.282895e-02 5.923278e-02 7.007097e-02 5.010583e-03 -2.343241e-02 -5.935421e-02 -3.396032e-02 -3.741707e-02 -2.734604e-02 -2.369891e-02 -1.226238e-02 2.119804e-02 5.613823e-02 -3.203328e-03 1.730256e-02 3.920093e-02 2.797741e-02
<VARIANCE> 39
 2.437839e-01 2.442526e-01 3.511215e-01 3.509041e-01 5.110741e-01 3.642256e-01 3.477142e-01 3.163068e-01 3.184922e-01 2.858546e-01 2.287066e-01 1.617599e-01 3.971089e-02 2.023815e-02 2.601529e-02 3.193294e-02 2.784921e-02 3.539065e-02 2.938457e-02 3.218181e-02 3.336694e-02 3.093037e-02 2.712221e-02 2.360282e-02 1.895105e-02 1.047620e-03 2.319551e-03 4.104409e-03 5.438328e-03 4.759274e-03 6.510653e-03 5.351564e-03 6.592905e-03 7.008212e-03 6.852963e-03 5.436434e-03 4.321433e-03 3.458028e-03 2.453952e-04
<GCONST> -6.797495e+01
<MIXTURE> 2 2.877486e-01
<MEAN> 39
 8.283946e-01 5.243404e-02 1.476895e-01 -3.010096e-01 -5.873939e-02 -3.757520e-01 -3.574995e-01 -1.363742e-01 3.908944e-02 1.484586e-01 -3.409939e-01 -1.801878e-01 7.253305e-01 8.313670e-04 1.110061e-01 2.688690e-02 5.990751e-02 1.240843e-02 5.360018e-04 1.636834e-02 -2.255072e-02 -4.204944e-02 -3.639277e-02 -2.945863e-02 -4.754175e-02 -1.731381e-02 -7.456791e-02 -2.511979e-02 -4.986417e-02 1.232246e-02 -9.914121e-03 5.844534e-03 1.263936e-02 2.609487e-02 3.859167e-02 -1.049618e-02 3.027210e-02 2.637335e-02 3.145497e-03
<VARIANCE> 39
 6.785928e-02 2.037465e-01 2.828156e-01 2.805271e-01 3.913827e-01 3.642254e-01 3.735821e-01 4.649462e-01 3.594961e-01 3.935955e-01 2.980297e-01 2.596301e-01 1.268078e-02 1.344404e-02 8.245843e-03 1.533512e-02 1.467444e-02 1.993625e-02 1.939012e-02 2.217175e-02 2.415679e-02 2.816009e-02 2.159800e-02 1.914733e-02 1.843407e-02 4.567344e-04 2.094437e-03 2.449267e-03 3.522597e-03 3.611626e-03 5.175939e-03 4.767066e-03 5.145214e-03 7.464086e-03 6.563823e-03 5.509481e-03 4.453884e-03 4.407862e-03 1.196720e-04
<GCONST> -7.798742e+01
<MIXTURE> 3 2.560553e-01
<MEAN> 39
 7.464328e-01 1.753607e-01 3.918570e-01 -2.480387e-01 -2.234159e-01 -5.711437e-01 -1.771392e-01 1.133758e-01 -1.782584e-01 -6.999458e-02 -3.335117e-01 -1.573403e-01 6.772258e-01 -7.619249e-03 6.245853e-02 1.138834e-03 4.560314e-02 3.662762e-02 3.691040e-02 1.069547e-02 -2.510518e-02 -4.689503e-02 -1.050290e-02 -1.705129e-02 -4.701300e-02 -3.203240e-02 -8.095641e-02 -2.868645e-02 -5.820952e-02 1.870568e-02 -9.612656e-03 2.105147e-02 2.138596e-03 -7.961633e-03 5.776495e-02 7.724097e-03 3.942538e-02 3.481419e-02 4.457202e-03
<VARIANCE> 39
 7.738902e-02 2.489884e-01 4.275058e-01 2.740306e-01 4.329858e-01 3.188924e-01 3.644872e-01 3.750847e-01 3.782854e-01 3.439026e-01 2.822056e-01 2.335897e-01 1.542858e-02 1.447115e-02 8.473409e-03 1.658432e-02 1.648459e-02 1.974475e-02 1.850823e-02 1.912937e-02 2.222803e-02 2.874746e-02 2.187780e-02 1.935920e-02 1.706230e-02 5.075792e-04 2.191387e-03 2.905169e-03 4.454109e-03 3.724715e-03 4.996633e-03 4.321907e-03 4.804638e-03 5.809213e-03 6.261381e-03 5.262377e-03 4.493237e-03 4.159142e-03 1.432929e-04
<GCONST> -7.743723e+01
<MIXTURE> 4 2.621283e-01
<MEAN> 39
 7.011290e-01 4.759321e-01 3.461447e-01 -7.065532e-02 -1.381447e-01 -2.853013e-01 -2.119142e-01 -3.034275e-01 -3.390346e-01 -3.149919e-04 -2.772408e-01 -2.895729e-01 6.494336e-01 -2.343303e-01 -3.058472e-02 -7.121684e-02 1.233581e-01 3.008474e-02 9.539502e-03 2.064381e-02 1.543055e-02 9.116063e-02 -7.647654e-02 4.791440e-02 8.741398e-02 -1.700631e-02 -5.652940e-02 -7.039710e-02 -4.314337e-02 -3.258969e-02 -2.201934e-02 -7.645415e-03 -8.745851e-03 4.826043e-02 8.072571e-02 1.060938e-02 2.729057e-02 4.256186e-02 1.380415e-02
<VARIANCE> 39
 9.663770e-02 1.974656e-01 3.858223e-01 2.883421e-01 3.704200e-01 3.058764e-01 2.814249e-01 3.258091e-01 3.040725e-01 3.284189e-01 2.707669e-01 1.729589e-01 1.737642e-02 1.542237e-02 2.637378e-02 3.632785e-02 2.740388e-02 3.713739e-02 3.656803e-02 3.544568e-02 4.240247e-02 3.577750e-02 3.330495e-02 2.957936e-02 2.137927e-02 5.258943e-04 2.102976e-03 3.377881e-03 5.851031e-03 4.459368e-03 5.356665e-03 4.943855e-03 5.789874e-03 7.021736e-03 6.334040e-03 5.682042e-03 4.899374e-03 3.925344e-03 1.364405e-04
<GCONST> -7.098210e+01
<STATE> 3
<NUMMIXES> 4
<MIXTURE> 1 1.864456e-01
<MEAN> 39
 -2.394012e-01 2.649374e-01 -1.241094e-01 5.518577e-01 -2.333536e-01 -3.323534e-01 1.206288e-03 -1.268980e-01 2.543469e-02 -9.967472e-02 4.300845e-02 4.916680e-02 5.590070e-01 -1.551110e-01 -2.528992e-01 -2.516136e-01 -4.409633e-02 -2.923984e-03 -3.770859e-02 1.184560e-01 2.041546e-01 2.165546e-01 -6.714076e-02 4.640439e-02 1.605488e-01 5.832577e-02 8.845408e-02 -8.697339e-02 -1.993873e-03 -1.258168e-01 3.021309e-02 1.415736e-03 6.105036e-03 4.921580e-02 2.108767e-02 -6.406680e-03 -3.302738e-02 9.334352e-03 2.412598e-02
<VARIANCE> 39
 1.263082e-01 1.885085e-01 2.374071e-01 2.030672e-01 2.760905e-01 2.283967e-01 2.333301e-01 2.584734e-01 2.464602e-01 2.207665e-01 1.787326e-01 1.182165e-01 1.730622e-02 1.405982e-02 2.740286e-02 4.071325e-02 3.908568e-02 4.399945e-02 3.673395e-02 4.141368e-02 4.950863e-02 5.022195e-02 4.049947e-02 3.236644e-02 2.372523e-02 1.671971e-03 2.837192e-03 5.395761e-03 5.926939e-03 5.872976e-03 7.997914e-03 6.029145e-03 7.105531e-03 7.585008e-03 7.621115e-03 6.472794e-03 5.177710e-03 4.382332e-03 1.565037e-04
<GCONST> -6.866897e+01
<MIXTURE> 2 2.799797e-01
<MEAN> 39
 -1.956660e-01 1.733764e-01 1.242888e-01 1.692568e-01 -8.992141e-02 -2.257025e-01 -4.004232e-02 -2.353365e-01 1.147058e-01 -2.680830e-01 -7.877312e-02 1.645672e-01 6.140769e-01 -2.352508e-01 -5.396229e-02 -3.625525e-02 -3.310149e-03 -6.554183e-02 1.386112e-02 -5.687128e-02 1.664127e-02 1.427095e-01 -1.015083e-02 7.837822e-02 9.697231e-02 2.116862e-02 8.748863e-02 -2.415945e-02 4.023362e-03 -8.416351e-02 -3.733282e-02 -8.775388e-03 -4.347874e-02 3.239142e-02 -1.207693e-03 5.645072e-02 3.503847e-03 -3.186680e-02 2.021088e-02
<VARIANCE> 39
 1.836840e-01 2.292376e-01 3.326730e-01 2.154865e-01 2.793631e-01 3.569155e-01 3.302905e-01 3.331013e-01 2.858387e-01 2.655018e-01 2.247233e-01 1.539847e-01 1.158928e-02 1.749110e-02 3.002570e-02 4.983842e-02 2.830686e-02 4.270237e-02 3.775107e-02 3.942421e-02 5.545079e-02 4.253333e-02 3.661271e-02 3.343388e-02 2.385865e-02 7.412117e-04 3.794197e-03 5.721478e-03 9.978190e-03 6.019397e-03 7.892560e-03 8.610760e-03 7.532072e-03 8.211854e-03 7.917026e-03 7.987303e-03 6.364509e-03 5.066282e-03 1.031008e-04
<GCONST> -6.545130e+01
<MIXTURE> 3 3.508892e-01
<MEAN> 39
 2.918754e-01 2.647425e-01 6.545448e-02 9.493165e-02 -1.225240e-01 -4.743467e-01 -2.798030e-01 -2.322189e-01 1.421909e-01 -7.311155e-02 -2.360813e-01 9.607945e-03 7.198927e-01 -1.622771e-01 -7.806797e-02 -1.437560e-01 -2.868145e-02 1.112428e-02 -1.748691e-02 -2.897309e-02 1.375238e-01 1.933446e-01 9.041121e-03 2.587114e-02 4.459209e-02 9.101819e-03 1.869280e-02 -6.941080e-02 -2.556283e-02 -6.501228e-02 -1.152547e-02 2.271426e-02 -4.633488e-04 4.775174e-02 2.347944e-02 2.401860e-02 8.842094e-03 -1.012627e-02 1.071642e-02
<VARIANCE> 39
 1.294517e-01 1.768523e-01 2.844918e-01 2.424542e-01 2.814508e-01 3.301694e-01 3.079071e-01 3.383353e-01 2.987730e-01 3.086762e-01 2.406349e-01 1.827977e-01 1.235462e-02 1.506460e-02 2.191245e-02 3.761189e-02 2.439695e-02 3.548721e-02 3.727624e-02 3.702158e-02 5.357296e-02 4.134246e-02 3.222729e-02 3.103586e-02 2.683903e-02 5.217963e-04 2.439950e-03 3.370143e-03 4.735020e-03 4.036682e-03 5.541131e-03 5.429083e-03 6.176428e-03 6.477996e-03 5.765338e-03 5.714555e-03 4.514516e-03 3.868862e-03 1.097433e-04
<GCONST> -7.194755e+01
<MIXTURE> 4 1.826570e-01
<MEAN> 39
 -4.886665e-01 1.082732e-01 1.795256e-01 5.120855e-01 4.938779e-01 2.627907e-01 2.765558e-01 -4.654936e-02 -1.178927e-01 -9.738545e-02 -2.056035e-02 2.470254e-02 3.238167e-01 -1.116377e-01 -1.587600e-01 -1.211690e-01 -1.046830e-01 -1.717281e-01 -1.051347e-01 -8.920060e-02 2.778733e-02 1.978271e-01 2.034735e-02 6.424733e-02 8.087863e-02 7.591576e-02 7.858165e-02 -1.162956e-02 -2.297533e-02 -8.755456e-02 -6.365542e-02 -4.837057e-02 -4.704977e-02 1.911798e-02 2.779165e-02 1.806613e-02 -7.718306e-03 -1.507490e-03 3.391392e-02
<VARIANCE> 39
 1.526186e-01 2.588755e-01 2.374415e-01 2.392191e-01 3.034307e-01 2.893532e-01 2.804801e-01 2.632411e-01 2.584164e-01 2.062355e-01 1.592000e-01 1.078308e-01 3.750301e-02 2.117945e-02 2.847365e-02 3.844324e-02 2.769719e-02 4.082402e-02 4.302607e-02 4.059676e-02 4.869749e-02 3.681609e-02 2.819633e-02 2.617411e-02 1.701388e-02 2.862464e-03 3.785912e-03 6.208485e-03 7.239685e-03 5.386829e-03 6.080421e-03 6.407086e-03 6.030649e-03 6.216548e-03 6.843274e-03 5.799663e-03 4.247712e-03 3.697036e-03 2.907355e-04
<GCONST> -6.750711e+01
<STATE> 4
<NUMMIXES> 4
<MIXTURE> 1 2.701229e-01
<MEAN> 39
 1.133246e-01 -1.552687e-01 -3.757555e-01 -4.878936e-02 -3.309702e-01 -7.379711e-01 -9.939879e-03 6.128615e-01 4.914551e-01 -2.171410e-01 -6.376351e-02 3.046281e-01 7.564296e-01 -9.542568e-03 -2.555916e-01 -1.776018e-01 -1.529167e-01 1.764457e-02 -1.004346e-02 6.363674e-02 2.431927e-01 1.788265e-01 -3.279231e-02 7.054326e-05 8.176494e-02 4.675908e-02 5.881047e-02 -2.114377e-02 2.886355e-02 -3.392227e-02 3.553618e-02 5.309020e-02 -9.602766e-03 -5.294737e-02 -3.904084e-02 1.554859e-02 -2.583766e-02 -4.279005e-02 8.356253e-04
<VARIANCE> 39
 8.115775e-02 1.262980e-01 1.825687e-01 1.532688e-01 2.212759e-01 2.218239e-01 3.292581e-01 2.491737e-01 2.409718e-01 2.256572e-01 1.897844e-01 1.702573e-01 6.721971e-03 1.880886e-02 2.992896e-02 3.254307e-02 3.031164e-02 4.353129e-02 3.832071e-02 4.762014e-02 4.488472e-02 4.747761e-02 4.289867e-02 3.269497e-02 2.881552e-02 1.406675e-03 2.000069e-03 3.146508e-03 3.436612e-03 3.843398e-03 4.801780e-03 4.321399e-03 5.559011e-03 5.811863e-03 4.836362e-03 4.895499e-03 4.117039e-03 3.715309e-03 8.617861e-05
<GCONST> -7.545085e+01
<MIXTURE> 2 2.038003e-01
<MEAN> 39
 -2.764841e-01 -1.587198e-01 2.810563e-01 -4.247469e-02 -8.416549e-02 -1.174546e-01 -6.642969e-01 7.320534e-02 3.070659e-01 -1.276500e-01 2.122295e-01 4.136204e-02 6.561580e-01 4.772465e-02 -4.066249e-02 -1.461284e-01 -1.968142e-01 -6.124222e-02 -3.674442e-02 -1.580806e-01 1.725539e-02 1.176433e-01 1.768782e-01 1.032437e-01 -6.010930e-03 5.957665e-02 1.146562e-01 4.945592e-02 -4.256844e-02 -6.348734e-02 -1.541890e-02 4.586343e-03 5.091941e-02 -3.259011e-02 -4.825424e-02 5.540833e-02 -2.336162e-02 -2.296446e-02 8.338379e-03
<VARIANCE> 39
 1.529066e-01 2.690241e-01 2.504695e-01 2.445129e-01 3.246480e-01 3.521594e-01 3.076761e-01 3.372161e-01 2.650110e-01 2.552599e-01 2.037525e-01 1.512184e-01 1.358568e-02 2.480252e-02 2.904644e-02 4.977412e-02 3.613982e-02 4.400357e-02 4.850959e-02 4.020039e-02 4.525865e-02 4.953628e-02 4.393833e-02 3.772246e-02 2.493816e-02 1.766321e-03 3.087355e-03 6.830102e-03 5.893020e-03 6.816731e-03 7.646692e-03 8.684076e-03 7.003216e-03 7.780825e-03 8.302213e-03 7.292540e-03 6.112633e-03 4.553053e-03 1.425649e-04
<GCONST> -6.404947e+01
<MIXTURE> 3 3.025402e-01
<MEAN> 39
 1.997412e-01 -3.223780e-01 -5.837778e-01 -3.703102e-01 -6.107621e-02 -5.533955e-01 -3.237614e-01 4.837246e-01 8.951308e-01 1.330412e-01 -3.593054e-01 7.498470e-02 7.836255e-01 4.650260e-02 -2.099829e-01 -1.942245e-01 -1.762501e-01 4.808866e-02 6.525911e-02 -1.710226e-02 1.525637e-01 1.885987e-01 4.425479e-02 -6.067493e-02 -4.881641e-02 4.605132e-02 4.352691e-02 4.145755e-03 3.917228e-02 -8.898946e-04 2.539097e-02 5.983242e-02 1.643200e-02 -6.370887e-02 -9.086657e-02 -2.889952e-03 1.444322e-02 -3.994939e-02 -5.606205e-03
<VARIANCE> 39
 7.473960e-02 1.389692e-01 1.897530e-01 1.827257e-01 2.238884e-01 2.623278e-01 3.534035e-01 4.027524e-01 2.448885e-01 3.103649e-01 1.954780e-01 2.584707e-01 7.581714e-03 2.175927e-02 2.554446e-02 3.005263e-02 2.985020e-02 3.764427e-02 3.836478e-02 4.239322e-02 4.738637e-02 3.866648e-02 3.867758e-02 2.823199e-02 3.071391e-02 1.475740e-03 2.020827e-03 2.882566e-03 3.361056e-03 3.681813e-03 4.595863e-03 4.499679e-03 5.106269e-03 7.542029e-03 5.445392e-03 4.600198e-03 3.940239e-03 4.017364e-03 1.426631e-04
<GCONST> -7.362384e+01
<MIXTURE> 4 2.235023e-01
<MEAN> 39
 -6.314532e-01 1.831355e-01 1.244268e-01 1.400036e-02 -3.990380e-01 -1.489845e-01 3.966277e-02 -3.586689e-01 2.016980e-01 4.056208e-04 1.309304e-01 2.853353e-01 5.918972e-01 4.472502e-02 -5.221885e-02 9.838063e-02 -2.158890e-01 -2.476917e-01 -1.023931e-01 -1.440133e-01 2.761745e-02 5.452059e-02 3.933956e-03 2.908925e-02 5.418600e-02 9.183776e-02 1.099731e-01 -1.244773e-02 2.871001e-02 -3.903394e-02 1.578178e-02 -2.751624e-03 -2.386994e-02 5.219474e-02 -3.421869e-02 3.139320e-03 -2.578269e-02 -4.392659e-02 6.843009e-03
<VARIANCE> 39
 1.411527e-01 3.272319e-01 4.212197e-01 2.248195e-01 3.559458e-01 2.997382e-01 3.154206e-01 3.329387e-01 2.748733e-01 2.211410e-01 1.986498e-01 1.280343e-01 2.032740e-02 2.894744e-02 3.913740e-02 6.948870e-02 4.045617e-02 4.334528e-02 4.620327e-02 4.392967e-02 4.636183e-02 4.883870e-02 3.530515e-02 3.446009e-02 2.414936e-02 3.612368e-03 3.155976e-03 5.358842e-03 6.328875e-03 6.026584e-03 7.939752e-03 7.907578e-03 7.710140e-03 6.785174e-03 6.553824e-03 5.844955e-03 5.492578e-03 3.904235e-03 2.407002e-04
<GCONST> -6.270637e+01
<TRANSP> 5
 0.000000e+00 1.000000e+00 0.000000e+00 0.000000e+00 0.000000e+00
 0.000000e+00 6.273435e-01 3.726566e-01 0.000000e+00 0.000000e+00
 0.000000e+00 0.000000e+00 2.967507e-01 7.032493e-01 0.000000e+00
 0.000000e+00 0.000000e+00 0.000000e+00 3.483683e-01 6.516317e-01
 0.000000e+00 0.000000e+00 0.000000e+00 0.000000e+00 0.000000e+00
<ENDHMM>
~h "f"
<BEGINHMM>
<NUMSTATES> 5
<STATE> 2
<NUMMIXES> 4
<MIXTURE> 1 2.456905e-01
<MEAN> 39
 -6.927472e-01 1.509480e-01 -2.953195e-01 6.379192e-01 -5.682120e-02 4.773136e-02 9.474732e-02 1.082894e-01 2.625321e-01 4.497122e-03 4.018273e-02 1.021349e-01 4.457370e-01 -7.171769e-02 -3.573684e-03 1.979546e-02 5.594113e-02 3.590646e-02 2.585381e-02 2.611041e-03 -6.133099e-03 -5.662993e-03 -6.709557e-03 -5.530608e-03 -4.490330e-03 -1.055460e-02 3.201383e-02 -1.015865e-02 7.173207e-03 -1.112298e-02 1.455699e-02 4.012214e-03 -7.760937e-03 -1.740549e-02 -2.390064e-02 -1.156979e-02 -8.272855e-03 -4.498480e-03 5.512881e-03
<VARIANCE> 39
 2.128114e-01 2.440561e-01 2.114596e-01 2.281603e-01 3.244592e-01 2.626885e-01 2.240508e-01 1.890086e-01 1.977060e-01 1.681012e-01 1.445904e-01 8.476032e-02 3.173873e-02 7.340664e-03 8.375760e-03 9.484360e-03 1.115924e-02 1.235388e-02 1.110677e-02 1.153978e-02 1.302911e-02 1.484296e-02 1.208711e-02 1.001091e-02 5.571597e-03 5.446465e-04 1.569537e-03 2.022418e-03 1.763818e-03 2.426094e-03 2.475424e-03 2.469783e-03 2.501474e-03 2.586178e-03 2.806793e-03 2.475502e-03 2.133662e-03 1.272877e-03 9.387141e-05
<GCONST> -9.661712e+01
<MIXTURE> 2 2.495660e-01
<MEAN> 39
 -3.680267e-02 4.031788e-01 -5.168174e-01 1.540164e-01 -3.927506e-01 -3.301166e-02 1.284679e-01 3.824247e-02 1.772409e-01 -4.724739e-02 -6.511908e-02 1.198291e-02 6.123629e-01 -1.859486e-01 6.600562e-02 1.920279e-02 1.463325e-01 -2.245973e-03 -3.183558e-02 2.815288e-02 6.268024e-03 3.412618e-02 -4.800060e-02 -1.339570e-02 5.583200e-02 -3.127031e-02 1.824459e-02 -4.239525e-02 2.116904e-02 -1.830816e-02 3.151375e-02 1.207741e-02 -2.716978e-02 -1.331608e-02 -1.827474e-02 2.074208e-03 3.308638e-03 -3.835694e-03 6.122958e-03
<VARIANCE> 39
 1.074636e-01 1.744110e-01 2.548630e-01 2.285894e-01 2.955922e-01 3.700666e-01 2.600035e-01 2.511879e-01 2.447899e-01 2.311834e-01 2.052612e-01 1.412262e-01 1.516479e-02 9.599023e-03 1.743344e-02 1.525906e-02 2.174068e-02 2.090834e-02 2.065699e-02 2.010078e-02 2.185971e-02 2.274805e-02 2.064502e-02 1.761200e-02 1.286416e-02 4.504146e-04 1.937252e-03 2.674215e-03 2.470891e-03 3.896082e-03 3.505592e-03 4.193572e-03 3.582344e-03 3.984021e-03 3.956016e-03 3.937530e-03 3.381994e-03 2.519693e-03 9.431214e-05
<GCONST> -8.464888e+01
<MIXTURE> 3 2.906969e-01
<MEAN> 39
 -6.208605e-01 3.801637e-01 -5.239420e-02 8.685958e-01 -4.632675e-02 -4.136569e-02 -1.605674e-01 -2.757292e-01 -1.498285e-01 -3.230331e-01 -1.065441e-01 1.686106e-01 5.179098e-01 -8.702125e-02 -3.369526e-02 8.427673e-03 5.379014e-02 5.119426e-02 2.103526e-02 -1.015259e-02 -1.744252e-02 -6.436700e-03 3.576939e-03 1.747134e-02 1.758533e-02 -2.196457e-02 3.627198e-02 -2.407169e-02 -1.449380e-02 -3.856850e-02 -3.667512e-03 -1.347054e-03 7.964529e-03 1.606997e-02 1.452973e-02 1.838494e-02 4.774520e-03 -1.106415e-02 4.412454e-03
<VARIANCE> 39
 1.153439e-01 1.532498e-01 1.811829e-01 2.005077e-01 2.546759e-01 2.388933e-01 2.149394e-01 1.959683e-01 2.126888e-01 1.738678e-01 1.421357e-01 8.446614e-02 1.991327e-02 6.271303e-03 7.443101e-03 8.727411e-03 9.908842e-03 1.093059e-02 1.017299e-02 1.099176e-02 1.279591e-02 1.423348e-02 1.304481e-02 1.050832e-02 5.213714e-03 3.500726e-04 1.344473e-03 1.557955e-03 1.697224e-03 2.415540e-03 2.328948e-03 2.190913e-03 2.328363e-03 2.564294e-03 2.858960e-03 2.552870e-03 2.140875e-03 1.235206e-03 8.002224e-05
<GCONST> -1.007378e+02
<MIXTURE> 4 2.139633e-01
<MEAN> 39
 2.198301e-01 3.629884e-01 -2.343374e-01 3.064160e-01 -1.242419e-01 4.104633e-02 -1.712137e-01 -3.102991e-01 -2.840298e-01 -3.431826e-01 -2.506453e-01 -9.606315e-02 6.798286e-01 -2.219519e-01 9.806876e-02 1.089813e-03 1.966699e-01 -3.168856e-02 -1.180660e-02 2.064741e-02 -1.133288e-02 -7.497104e-03 -6.040251e-02 -6.220844e-03 5.755692e-02 -3.621960e-02 -2.341220e-02 -4.068569e-02 -8.834422e-03 -3.257841e-02 -8.560411e-03 -9.742146e-03 9.954089e-03 2.882354e-02 4.200584e-02 3.282097e-02 2.613756e-02 1.710897e-02 -2.956977e-03
<VARIANCE> 39
 1.650065e-01 1.780580e-01 2.607449e-01 3.264431e-01 2.999142e-01 3.270898e-01 2.442936e-01 2.676905e-01 2.740681e-01 2.688914e-01 2.073742e-01 1.639905e-01 1.537969e-02 1.009334e-02 2.162874e-02 1.956417e-02 3.109026e-02 2.887566e-02 2.731293e-02 2.536136e-02 2.858269e-02 3.190125e-02 2.748736e-02 2.237600e-02 1.694217e-02 5.005391e-04 2.665593e-03 2.234505e-03 2.328026e-03 4.221584e-03 3.354591e-03 3.425832e-03 3.644947e-03 4.008580e-03 4.205842e-03 4.241969e-03 3.329639e-03 2.703801e-03 8.595239e-05
<GCONST> -8.023518e+01
<STATE> 3
<NUMMIXES> 4
<MIXTURE> 1 2.078252e-01
<MEAN> 39
 -7.718977e-01 5.383953e-02 -1.134534e-01 9.040136e-01 2.006596e-01 2.557420e-02 -7.240215e-02 -2.199251e-01 -9.010428e-02 -2.786945e-01 -6.604249e-02 1.784225e-01 4.424800e-01 2.971768e-01 -1.585544e-01 -1.856147e-01 -3.430251e-01 -4.675869e-02 -1.983436e-03 -1.667546e-03 5.729634e-02 8.842617e-02 1.114836e-01 3.638336e-02 -5.298189e-02 6.894964e-02 1.074947e-01 -2.989133e-02 -5.661326e-02 -1.208523e-01 -3.321287e-02 1.768858e-02 8.719844e-03 1.742103e-02 2.654932e-02 3.112924e-02 9.876800e-03 -2.615253e-02 2.941600e-02
<VARIANCE> 39
 1.079317e-01 1.445832e-01 1.573728e-01 1.701274e-01 2.030925e-01 1.799852e-01 1.942253e-01 1.987768e-01 2.224656e-01 1.752544e-01 1.355709e-01 8.694798e-02 1.565458e-02 2.056226e-02 3.039478e-02 2.544765e-02 3.161868e-02 3.285414e-02 3.990699e-02 2.850658e-02 3.103307e-02 3.517703e-02 2.424677e-02 2.146395e-02 1.572697e-02 1.866742e-03 2.011288e-03 3.873826e-03 3.330408e-03 5.011852e-03 5.597836e-03 5.258046e-03 4.459594e-03 5.164334e-03 5.076595e-03 4.255524e-03 3.699481e-03 2.945880e-03 1.311267e-04
<GCONST> -7.900711e+01
<MIXTURE> 2 2.905512e-01
<MEAN> 39
 -8.671198e-01 -4.433259e-03 -3.496097e-01 7.457079e-01 1.195613e-01 1.415980e-01 1.232910e-01 -4.946961e-02 1.200778e-01 -1.766098e-01 -1.390040e-02 1.959935e-01 4.340307e-01 8.485247e-02 -6.996578e-02 -1.136367e-02 -8.831673e-02 -4.148291e-03 -5.004247e-02 -3.023238e-02 1.817584e-02 1.196665e-02 2.879488e-02 1.019398e-02 -8.278389e-03 1.909303e-02 1.225220e-01 -5.706344e-03 -2.592254e-02 -9.790637e-02 -3.406597e-02 -9.252860e-03 -1.712869e-02 -1.082526e-03 -5.689771e-03 1.908088e-02 2.001591e-03 -2.445004e-02 2.787218e-02
<VARIANCE> 39
 1.880247e-01 2.045729e-01 1.907109e-01 2.286124e-01 2.133920e-01 2.058416e-01 2.165713e-01 2.001040e-01 2.025345e-01 1.692597e-01 1.508473e-01 8.772848e-02 1.951743e-02 2.479251e-02 1.332527e-02 1.325290e-02 2.188160e-02 1.777947e-02 1.750423e-02 1.659797e-02 1.542810e-02 1.679276e-02 1.312802e-02 1.208783e-02 8.108100e-03 1.481971e-03 1.763555e-03 4.305670e-03 3.420663e-03 4.301883e-03 4.639640e-03 5.188601e-03 4.132868e-03 4.153333e-03 4.092853e-03 3.679780e-03 3.477012e-03 2.361035e-03 1.565097e-04
<GCONST> -8.538078e+01
<MIXTURE> 3 2.653749e-01
<MEAN> 39
 -6.408466e-01 1.790589e-01 -2.632854e-01 6.442724e-01 -1.251916e-01 -9.029854e-03 2.055890e-02 2.960094e-02 2.004158e-01 -2.400662e-02 3.677961e-02 7.784555e-02 4.879466e-01 5.247978e-02 -7.505195e-02 4.935400e-03 -2.430603e-02 7.420627e-02 -1.548375e-03 -4.002894e-02 -5.490536e-02 -5.768527e-02 -3.818339e-02 -1.469859e-02 1.757322e-02 1.049056e-02 1.055045e-01 -3.193209e-02 -4.156283e-02 -9.171362e-02 -7.014249e-03 6.185139e-03 -5.109901e-03 -1.014885e-02 -1.113433e-02 3.566085e-04 -6.996169e-03 -1.001711e-02 2.509297e-02
<VARIANCE> 39
 1.953018e-01 2.290481e-01 1.971698e-01 2.461097e-01 3.083226e-01 2.571138e-01 2.273577e-01 2.309312e-01 2.284416e-01 1.891678e-01 1.540515e-01 9.326693e-02 1.958898e-02 2.222202e-02 1.632426e-02 1.492697e-02 2.432161e-02 2.344749e-02 1.990624e-02 1.755890e-02 1.886270e-02 1.925883e-02 1.665507e-02 1.441289e-02 9.414060e-03 1.105311e-03 1.645427e-03 5.221384e-03 3.523701e-03 4.312178e-03 5.835704e-03 5.173985e-03 4.177725e-03 4.915519e-03 4.715328e-03 4.159899e-03 3.454605e-03 2.293803e-03 1.632149e-04
<GCONST> -8.180297e+01
<MIXTURE> 4 2.362066e-01
<MEAN> 39
 -4.692869e-01 4.256604e-01 8.686526e-02 8.071923e-01 -4.751747e-02 -1.818734e-01 -2.367263e-01 -3.502223e-01 -2.462234e-01 -4.238301e-01 -2.135708e-01 1.354762e-01 5.532811e-01 1.158274e-01 -1.843960e-01 -1.450562e-01 -1.474206e-01 9.961987e-02 7.299688e-02 1.626821e-02 6.651265e-03 5.385523e-02 6.376049e-02 2.093334e-02 -3.278487e-02 2.114755e-02 9.617415e-02 -7.937399e-02 -9.582212e-02 -1.215653e-01 -1.254720e-02 3.242666e-02 2.348211e-02 3.142234e-02 5.271875e-02 5.435101e-02 2.579583e-02 -2.632442e-02 2.283287e-02
<VARIANCE> 39
 1.079110e-01 1.409774e-01 1.576074e-01 1.951256e-01 2.445707e-01 2.186773e-01 2.055465e-01 2.145085e-01 2.370183e-01 1.982771e-01 1.580319e-01 1.084922e-01 1.495525e-02 2.407352e-02 1.967078e-02 2.586042e-02 3.406536e-02 2.374073e-02 2.672716e-02 2.303444e-02 2.656025e-02 2.861374e-02 2.446047e-02 1.974063e-02 1.436346e-02 1.432380e-03 1.782540e-03 3.578756e-03 3.143132e-03 4.650000e-03 5.055438e-03 5.043112e-03 4.590344e-03 5.509736e-03 5.420705e-03 4.444311e-03 3.860091e-03 3.135663e-03 1.529080e-04
<GCONST> -7.979839e+01
<STATE> 4
<NUMMIXES> 4
<MIXTURE> 1 2.442121e-01
<MEAN> 39
 -1.567203e-01 -1.649891e-02 -3.959283e-01 2.154383e-01 -2.041137e-01 -2.545703e-01 -1.072333e-01 3.324318e-02 9.508683e-02 -1.560844e-01 -4.933659e-02 1.759127e-01 6.077210e-01 3.742722e-01 -1.297554e-01 -1.396240e-01 -3.799235e-01 -1.059252e-01 -3.530013e-02 -1.247182e-03 7.566839e-02 6.760719e-02 6.522625e-02 1.990459e-02 -3.428795e-02 9.437280e-02 5.426103e-03 -1.292371e-02 1.814221e-04 -1.730395e-02 4.339447e-03 4.001370e-02 1.574329e-02 -6.702735e-03 -8.281847e-03 7.792065e-03 1.234097e-02 -1.078561e-02 7.297301e-03
<VARIANCE> 39
 1.478587e-01 1.547074e-01 1.788242e-01 1.831862e-01 2.071862e-01 1.887113e-01 1.692082e-01 1.745936e-01 1.844886e-01 1.493283e-01 1.252618e-01 8.996542e-02 1.084651e-02 1.756040e-02 5.245656e-02 3.970057e-02 4.468048e-02 5.245750e-02 5.586907e-02 3.914561e-02 4.585612e-02 5.006674e-02 3.619203e-02 2.868090e-02 2.317804e-02 1.584867e-03 2.277291e-03 2.435762e-03 2.685186e-03 4.137328e-03 4.572135e-03 3.469315e-03 3.937609e-03 4.275059e-03 4.141155e-03 3.800727e-03 2.970849e-03 2.375288e-03 1.349357e-04
<GCONST> -7.782571e+01
<MIXTURE> 2 2.499960e-01
<MEAN> 39
 5.818904e-01 -3.904606e-01 -1.050061e+00 -6.084288e-01 1.324784e-01 3.121314e-01 7.794924e-03 -2.429009e-01 2.082512e-01 1.647273e-01 -4.156090e-02 -1.042506e-01 7.494200e-01 3.137801e-01 -2.510080e-01 -2.558747e-01 -3.521223e-01 8.519074e-02 1.444016e-01 3.536837e-02 -4.061277e-02 6.659420e-02 8.561447e-02 2.866667e-02 -6.457394e-02 9.278985e-02 -9.051426e-02 5.026101e-03 5.993466e-02 1.033569e-01 1.165077e-02 -4.433318e-03 -7.851458e-03 -3.811374e-05 -1.807086e-02 -2.902343e-02 8.548358e-03 1.427785e-02 -1.174298e-02
<VARIANCE> 39
 5.136653e-02 1.641135e-01 1.139223e-01 2.272242e-01 1.846704e-01 2.199553e-01 2.329523e-01 2.111432e-01 2.589763e-01 1.990314e-01 1.857249e-01 1.107962e-01 5.775713e-03 1.647939e-02 3.648182e-02 2.776571e-02 5.136770e-02 4.669064e-02 4.126637e-02 3.925735e-02 4.122087e-02 4.356457e-02 3.473492e-02 2.958078e-02 2.359858e-02 1.405170e-03 1.801774e-03 2.022515e-03 2.553705e-03 3.692308e-03 3.197742e-03 3.187875e-03 3.564573e-03 3.989168e-03 4.993647e-03 3.434349e-03 3.261585e-03 2.039962e-03 1.561550e-04
<GCONST> -8.035462e+01
<MIXTURE> 3 2.859779e-01
<MEAN> 39
 6.326254e-02 4.514569e-02 -4.581250e-01 1.180493e-01 9.897368e-02 1.177585e-01 -4.826328e-02 -1.773178e-01 -4.514034e-02 -6.098728e-02 -1.005047e-01 -3.513966e-02 6.339855e-01 2.882001e-01 -1.841227e-01 -1.869252e-01 -3.126961e-01 -4.026555e-04 7.802170e-02 -8.886172e-03 -2.266752e-02 2.844054e-02 9.186881e-02 4.858065e-02 -6.501041e-02 6.423311e-02 3.077329e-03 -2.470535e-02 -1.557353e-02 -1.358701e-02 -1.631305e-02 7.274275e-03 1.455342e-03 6.572802e-03 1.599040e-02 3.590849e-03 1.335213e-02 8.596914e-04 9.532266e-03
<VARIANCE> 39
 1.025584e-01 1.480981e-01 1.524343e-01 1.846602e-01 1.950253e-01 1.820479e-01 2.034242e-01 1.745009e-01 1.617662e-01 1.593894e-01 1.384554e-01 9.756923e-02 1.100193e-02 1.648533e-02 4.049769e-02 3.427085e-02 4.443702e-02 4.683400e-02 5.000201e-02 4.392198e-02 3.956735e-02 4.221625e-02 3.500540e-02 3.012258e-02 2.422374e-02 1.379150e-03 1.410637e-03 2.278131e-03 2.488681e-03 3.608409e-03 3.846282e-03 3.286356e-03 3.640038e-03 4.132011e-03 3.394214e-03 3.356493e-03 2.867071e-03 2.341121e-03 9.395426e-05
<GCONST> -8.098483e+01
<MIXTURE> 4 2.197882e-01
<MEAN> 39
 6.263963e-01 -6.037222e-01 -1.092189e+00 -8.207231e-01 2.688308e-02 6.845189e-01 -5.017883e-02 -2.651533e-01 1.541167e-01 4.642425e-01 3.364078e-01 -4.926465e-01 8.013135e-01 1.697398e-01 -2.461730e-01 -1.563525e-01 -2.336653e-01 2.810731e-02 1.724786e-01 -9.944370e-03 -1.562033e-02 3.393422e-02 7.869752e-02 6.587809e-02 -1.534497e-01 6.249018e-02 -1.021079e-01 4.122135e-02 7.277931e-02 1.286441e-01 2.207900e-02 -5.240012e-02 1.682699e-03 9.860937e-03 -8.491230e-03 -6.874581e-02 -4.461559e-02 5.260571e-02 -1.811825e-02
<VARIANCE> 39
 5.733956e-02 1.682967e-01 1.655707e-01 2.878262e-01 2.316784e-01 3.175361e-01 3.566929e-01 2.585030e-01 2.791372e-01 2.097366e-01 2.495233e-01 1.524742e-01 6.322984e-03 1.536997e-02 2.076672e-02 2.533341e-02 4.104961e-02 3.367635e-02 3.991700e-02 3.636566e-02 3.597657e-02 3.177943e-02 2.529225e-02 2.640397e-02 2.033367e-02 9.948555e-04 2.070013e-03 2.665344e-03 3.357508e-03 4.770617e-03 4.101510e-03 4.421872e-03 5.062143e-03 4.879551e-03 4.940988e-03 4.065699e-03 4.418334e-03 3.035676e-03 1.873708e-04
<GCONST> -7.720203e+01
<TRANSP> 5
 0.000000e+00 1.000000e+00 0.000000e+00 0.000000e+00 0.000000e+00
 0.000000e+00 8.402202e-01 1.597799e-01 0.000000e+00 0.000000e+00
 0.000000e+00 0.000000e+00 6.162031e-01 3.837969e-01 0.000000e+00
 0.000000e+00 0.000000e+00 0.000000e+00 4.754249e-01 5.245751e-01
 0.000000e+00 0.000000e+00 0.000000e+00 0.000000e+00 0.000000e+00
<ENDHMM>
~h "g"
<BEGINHMM>
<NUMSTATES> 5
<STATE> 2
<NUMMIXES> 4
<MIXTURE> 1 1.765823e-01
<MEAN> 39
 -8.131380e-02 2.835397e-01 1.660095e-01 3.197146e-01 4.011786e-01 1.335927e-01 1.865653e-01 1.935263e-02 -2.438571e-01 1.443529e-02 -1.128497e-01 -8.628310e-02 3.397605e-01 -1.241747e-02 -4.748389e-03 -7.500954e-02 -1.664564e-02 7.025224e-03 1.601729e-02 1.707046e-02 2.835347e-02 1.111573e-02 1.127539e-02 -4.442018e-03 3.441363e-03 -5.307766e-04 2.071112e-02 -1.823364e-02 -6.129016e-02 -4.511882e-02 -2.123815e-02 -1.321754e-02 -1.407320e-02 6.769826e-03 1.455935e-02 2.336801e-02 6.909581e-03 6.492451e-03 1.457371e-02
<VARIANCE> 39
 2.459902e-01 2.167211e-01 2.467237e-01 2.971744e-01 3.711803e-01 3.192070e-01 2.754182e-01 2.569423e-01 2.337687e-01 2.072057e-01 1.740989e-01 1.159751e-01 4.499813e-02 6.625886e-03 1.256762e-02 2.520102e-02 1.772146e-02 1.900035e-02 1.731246e-02 1.681361e-02 1.789033e-02 1.786957e-02 1.559637e-02 1.276143e-02 8.237994e-03 7.831379e-04 1.615704e-03 3.156217e-03 6.506851e-03 4.931080e-03 4.711227e-03 4.451612e-03 4.401958e-03 4.350957e-03 4.476057e-03 3.943303e-03 3.250458e-03 2.074161e-03 2.529082e-04
<GCONST> -8.171684e+01
<MIXTURE> 2 3.208871e-01
<MEAN> 39
 8.074839e-01 2.319985e-01 -3.050912e-03 -2.701053e-01 -1.543165e-01 -1.976453e-01 -3.255232e-01 -2.576401e-01 -1.889335e-01 3.161614e-01 -2.641389e-01 -3.710790e-01 6.741711e-01 -5.842106e-02 6.423029e-02 -1.284014e-01 4.829885e-02 6.108180e-02 3.672951e-02 4.147497e-02 3.317892e-02 -5.477610e-02 -2.361761e-02 -3.810065e-03 6.824212e-03 -2.250027e-02 -2.663435e-02 -1.908829e-02 -4.849211e-02 -3.211916e-02 -3.373505e-03 1.471916e-02 1.269246e-02 1.630828e-02 1.103901e-02 2.457753e-03 2.887291e-02 3.220008e-02 6.987052e-03
<VARIANCE> 39
 7.285579e-02 2.399396e-01 2.894025e-01 3.565530e-01 3.945284e-01 3.937000e-01 3.270011e-01 3.775208e-01 3.892145e-01 4.063220e-01 3.601880e-01 2.320216e-01 1.670887e-02 1.450618e-02 1.758398e-02 4.170803e-02 3.381912e-02 3.805169e-02 4.064577e-02 3.332313e-02 3.816927e-02 4.051911e-02 3.857039e-02 2.991150e-02 2.630932e-02 5.999163e-04 1.419204e-03 2.348095e-03 4.391467e-03 5.400416e-03 5.664127e-03 5.942691e-03 5.235464e-03 6.005697e-03 7.321896e-03 6.951162e-03 5.492489e-03 4.034970e-03 1.708737e-04
<GCONST> -6.922202e+01
<MIXTURE> 3 2.635881e-01
<MEAN> 39
 7.060678e-01 4.153915e-01 3.816991e-01 -3.013730e-01 -4.834561e-01 -3.982455e-01 -1.553020e-01 -1.175273e-01 -2.046210e-01 2.046241e-01 -2.171941e-01 -2.215684e-01 6.234576e-01 -7.673705e-02 -2.345004e-02 -1.470860e-01 1.524629e-01 1.561280e-01 -5.252749e-03 -2.023248e-02 -7.727600e-03 -6.009230e-03 -1.401573e-02 -9.607667e-03 1.328433e-02 -2.578605e-02 -4.727759e-02 -5.553435e-02 -9.725693e-02 1.993554e-02 6.453672e-02 1.304907e-02 -1.300418e-02 1.532025e-03 2.100400e-02 1.941478e-02 8.298603e-03 2.972617e-02 7.989434e-03
<VARIANCE> 39
 1.072038e-01 2.329504e-01 3.986399e-01 3.748353e-01 3.523139e-01 3.876723e-01 3.089601e-01 3.591315e-01 3.955356e-01 3.396391e-01 3.009171e-01 2.085611e-01 1.929864e-02 1.317420e-02 2.458417e-02 4.195883e-02 3.402986e-02 4.434723e-02 3.439874e-02 2.873510e-02 2.750173e-02 3.299618e-02 2.903925e-02 2.357567e-02 2.034827e-02 5.999398e-04 1.774803e-03 3.239910e-03 5.073632e-03 5.991279e-03 6.070047e-03 6.588807e-03 5.667855e-03 5.931530e-03 7.048644e-03 5.941649e-03 4.762203e-03 4.049001e-03 1.703618e-04
<GCONST> -6.956268e+01
<MIXTURE> 4 2.388977e-01
<MEAN> 39
 5.894959e-01 4.417830e-01 -2.781369e-02 -9.684670e-02 5.703706e-02 -6.034312e-02 -1.207456e-01 -2.953803e-01 -4.552169e-01 1.644994e-02 -1.918898e-01 -1.931609e-01 5.709955e-01 -6.421857e-02 3.620658e-02 -8.147953e-02 1.944568e-02 2.236654e-02 2.761854e-02 4.424550e-02 6.446177e-02 -8.051125e-03 -1.868797e-02 -2.580320e-02 1.409696e-03 -2.509324e-02 2.807600e-03 -1.553638e-02 -3.861250e-02 -4.469847e-02 -2.288674e-02 4.765337e-03 1.219798e-03 2.670020e-02 2.809856e-02 3.015737e-02 1.535255e-02 4.383422e-03 9.590087e-03
<VARIANCE> 39
 1.068929e-01 1.955682e-01 2.593946e-01 2.793740e-01 2.703539e-01 2.599232e-01 2.439640e-01 2.553142e-01 2.340861e-01 2.350580e-01 2.235035e-01 1.463297e-01 2.254616e-02 4.737201e-03 1.045400e-02 2.390720e-02 1.704367e-02 1.783677e-02 1.873459e-02 1.758710e-02 2.298691e-02 2.106293e-02 2.128398e-02 1.749718e-02 1.277547e-02 5.073376e-04 9.605709e-04 1.747186e-03 3.892526e-03 3.319125e-03 3.421182e-03 3.411989e-03 3.346292e-03 4.154851e-03 4.151411e-03 4.078547e-03 3.509792e-03 2.473306e-03 1.248092e-04
<GCONST> -8.632275e+01
<STATE> 3
<NUMMIXES> 4
<MIXTURE> 1 2.815484e-01
<MEAN> 39
 4.925873e-01 4.797064e-01 -6.791955e-01 -2.514259e-01 7.693189e-02 1.859655e-01 1.179846e-02 -2.592674e-02 -5.419639e-01 9.802882e-02 -3.100367e-01 -2.145208e-01 5.893131e-01 9.990207e-03 4.096889e-02 -1.429411e-01 -1.596770e-01 -4.849009e-02 4.591347e-02 1.845610e-02 1.400601e-02 -7.142076e-03 5.055159e-02 9.145883e-02 6.120772e-02 2.625063e-02 4.461945e-02 -3.169362e-02 4.341205e-02 -8.480784e-02 -5.549551e-02 -1.410315e-02 -2.518115e-02 -2.717100e-02 5.683645e-02 3.820113e-02 5.875795e-02 9.307792e-03 2.222251e-02
<VARIANCE> 39
 8.281484e-02 1.830090e-01 2.892304e-01 2.262868e-01 3.819609e-01 3.000878e-01 3.120085e-01 3.124028e-01 2.787605e-01 2.735957e-01 2.738524e-01 1.955969e-01 1.624415e-02 1.040759e-02 1.586454e-02 3.662128e-02 2.914762e-02 3.530222e-02 3.247083e-02 2.897180e-02 3.462951e-02 3.398519e-02 3.723204e-02 2.851865e-02 1.943280e-02 1.041607e-03 1.499111e-03 3.196588e-03 5.938324e-03 4.843900e-03 7.283919e-03 6.444731e-03 6.112064e-03 6.475861e-03 6.885410e-03 6.270816e-03 5.357294e-03 4.724736e-03 1.147004e-04
<GCONST> -7.213412e+01
<MIXTURE> 2 2.733038e-01
<MEAN> 39
 -1.570585e-01 -3.914573e-01 -9.412088e-01 6.125432e-01 7.923940e-01 -5.854483e-01 -4.018202e-01 -3.602748e-02 1.775081e-01 4.847233e-01 -1.670758e-01 1.483124e-01 5.783445e-01 -7.700650e-03 -6.687683e-02 -1.356476e-01 -1.357994e-01 -2.485046e-02 -6.155668e-02 -4.029111e-02 4.230554e-02 1.296338e-01 9.961570e-02 -2.738176e-03 1.688342e-02 5.230041e-02 8.654299e-02 4.191351e-02 9.592091e-02 -1.454135e-01 -1.155672e-01 5.600163e-02 3.945067e-02 -5.088979e-05 -6.928187e-03 -2.121070e-02 5.945980e-03 -4.063421e-02 1.448564e-02
<VARIANCE> 39
 1.334012e-01 2.086361e-01 3.833545e-01 3.224253e-01 5.223187e-01 4.237021e-01 4.079047e-01 4.013762e-01 3.299202e-01 3.297040e-01 2.614910e-01 2.008563e-01 1.316643e-02 2.581851e-02 3.090716e-02 5.068045e-02 6.113797e-02 6.797852e-02 4.531171e-02 4.334008e-02 4.209242e-02 4.062557e-02 3.749311e-02 3.041350e-02 2.697941e-02 2.123296e-03 2.389221e-03 5.978340e-03 7.797782e-03 8.671747e-03 1.106055e-02 8.766768e-03 8.504720e-03 8.537248e-03 8.525972e-03 7.625180e-03 6.471880e-03 4.862625e-03 2.018695e-04
<GCONST> -5.959966e+01
<MIXTURE> 3 2.355965e-01
<MEAN> 39
 3.292879e-01 2.719274e-01 -1.077646e+00 -6.964701e-01 -4.483733e-02 2.060367e-01 2.262085e-01 4.236875e-01 -1.338621e-01 3.278796e-01 -8.922114e-02 -1.523333e-01 5.114806e-01 4.779738e-02 3.509203e-02 -1.510386e-01 -1.454868e-01 -7.276565e-02 1.736031e-02 -1.321283e-02 1.227126e-02 -4.072439e-02 1.557830e-02 3.324581e-02 1.992624e-02 3.846235e-02 3.555099e-02 6.858964e-03 1.061409e-01 1.349746e-02 -1.494960e-02 -1.158893e-02 -3.587174e-02 -7.683913e-02 -1.253290e-02 -1.274293e-02 2.048499e-02 4.663279e-03 1.749699e-02
<VARIANCE> 39
 1.247258e-01 2.055525e-01 3.633337e-01 2.578062e-01 3.651274e-01 3.143057e-01 3.335925e-01 3.393483e-01 2.880837e-01 2.836929e-01 2.242376e-01 1.723090e-01 2.326149e-02 1.840445e-02 1.765427e-02 6.323960e-02 4.507957e-02 3.747051e-02 3.419259e-02 3.225488e-02 4.503494e-02 3.047525e-02 3.134010e-02 2.539001e-02 1.730452e-02 2.316784e-03 1.947524e-03 3.489555e-03 8.439933e-03 7.333012e-03 7.335220e-03 6.639011e-03 6.487922e-03 7.049270e-03 6.391521e-03 5.909331e-03 4.664091e-03 3.662679e-03 2.026338e-04
<GCONST> -6.723203e+01
<MIXTURE> 4 2.095049e-01
<MEAN> 39
 -4.162392e-02 8.077274e-02 -1.833476e-01 4.772867e-01 5.267309e-01 -6.350391e-04 -8.936163e-03 -7.350223e-02 -1.747989e-01 1.270708e-01 -9.828788e-02 -3.566135e-02 4.085576e-01 -6.245674e-02 -1.740138e-01 -3.587125e-01 -2.052713e-02 8.987917e-02 -6.968084e-02 -8.366572e-02 3.771813e-02 1.221691e-01 1.229442e-01 2.730889e-02 5.469132e-02 4.073833e-02 3.857739e-02 -2.109800e-03 -1.335058e-02 -8.977176e-02 -5.708067e-02 -2.240809e-02 -9.704315e-03 1.074474e-02 2.117816e-02 2.889016e-02 7.058826e-04 -4.385321e-03 2.305071e-02
<VARIANCE> 39
 2.161992e-01 2.779894e-01 4.868509e-01 2.853825e-01 4.339174e-01 4.564501e-01 4.313001e-01 3.016698e-01 2.780763e-01 2.441061e-01 1.934733e-01 1.241849e-01 4.451324e-02 3.104988e-02 3.546087e-02 5.667651e-02 7.766848e-02 9.422746e-02 5.704620e-02 5.283287e-02 4.976107e-02 4.120386e-02 3.719967e-02 2.970431e-02 2.283226e-02 2.358782e-03 2.074593e-03 4.670459e-03 9.182132e-03 5.639245e-03 6.614867e-03 5.831776e-03 6.145536e-03 5.151029e-03 5.465679e-03 4.553998e-03 3.846484e-03 2.728150e-03 2.508545e-04
<GCONST> -6.182080e+01
<STATE> 4
<NUMMIXES> 4
<MIXTURE> 1 3.244735e-01
<MEAN> 39
 7.559724e-01 6.758364e-01 -6.403055e-01 -7.964543e-01 -4.063178e-01 8.377136e-02 1.750307e-02 2.817037e-02 -5.146336e-01 1.474820e-01 -6.514344e-02 -1.068797e-01 6.904075e-01 1.056716e-01 -3.793843e-03 -4.104280e-02 -2.698087e-01 -1.091368e-01 5.655383e-02 -2.747274e-02 -7.709436e-02 3.489219e-02 6.863768e-02 1.810393e-01 8.623044e-02 6.414629e-02 -3.184611e-03 -5.850315e-02 2.480106e-02 -6.258115e-03 1.666592e-02 1.817797e-02 -2.123559e-02 -3.003573e-02 5.519505e-02 2.282586e-02 2.159130e-02 -6.085001e-03 6.218391e-03
<VARIANCE> 39
 6.537665e-02 1.362352e-01 1.869178e-01 2.082942e-01 2.506001e-01 2.212677e-01 1.949886e-01 2.052700e-01 2.068259e-01 2.425745e-01 2.299957e-01 1.521858e-01 1.049474e-02 1.082072e-02 1.921394e-02 3.592533e-02 3.263975e-02 4.045766e-02 3.761202e-02 3.654136e-02 4.323088e-02 3.970008e-02 4.375183e-02 3.229880e-02 2.342285e-02 1.375457e-03 1.041168e-03 2.463166e-03 3.896167e-03 4.455607e-03 4.321172e-03 4.497985e-03 4.039153e-03 4.441747e-03 5.115747e-03 4.984934e-03 4.213734e-03 3.811911e-03 1.077152e-04
<GCONST> -7.796214e+01
<MIXTURE> 2 2.165248e-01
<MEAN> 39
 4.755818e-01 9.198704e-02 -9.603855e-01 -6.805769e-01 1.596004e-01 -2.567393e-01 -3.003886e-01 -2.078637e-01 1.044955e-01 7.984797e-01 -9.968140e-02 8.141010e-02 7.285180e-01 1.527712e-01 -4.348088e-02 5.029792e-02 -3.736350e-01 -1.518418e-01 4.885204e-02 8.119985e-03 -4.918252e-02 1.366259e-01 7.290561e-02 6.131241e-02 -4.195165e-02 8.597791e-02 -7.510031e-03 -3.269286e-02 6.187766e-02 2.759234e-02 6.311834e-04 4.666188e-02 3.083594e-02 1.391002e-02 -2.235000e-04 -6.892745e-02 2.373016e-03 -3.060951e-02 -8.768119e-03
<VARIANCE> 39
 1.457255e-01 2.000334e-01 2.778774e-01 4.207261e-01 4.028487e-01 4.613865e-01 3.445394e-01 3.390198e-01 4.776401e-01 3.313783e-01 3.504720e-01 2.121090e-01 7.769537e-03 1.454835e-02 2.769317e-02 4.020638e-02 4.934309e-02 6.410202e-02 4.874110e-02 5.437033e-02 5.560644e-02 5.465559e-02 4.787355e-02 4.206705e-02 2.911760e-02 1.181405e-03 2.505892e-03 3.183617e-03 6.789515e-03 6.390885e-03 7.843187e-03 7.449989e-03 6.066952e-03 6.907865e-03 8.927396e-03 5.926954e-03 5.513208e-03 4.053898e-03 1.966395e-04
<GCONST> -6.283722e+01
<MIXTURE> 3 2.742679e-01
<MEAN> 39
 4.824904e-01 2.952357e-01 -5.638987e-01 -3.049302e-01 -3.342934e-03 -2.157647e-01 -3.105751e-01 -1.902947e-01 -1.612082e-01 3.904970e-01 3.115865e-02 -1.467259e-01 6.822497e-01 1.160236e-01 2.882074e-02 4.524177e-02 -2.283006e-01 -2.231528e-01 8.238666e-03 -5.247574e-02 -3.370833e-02 8.634657e-02 5.064814e-02 8.423847e-02 -1.576934e-02 6.225868e-02 8.609842e-03 -3.019525e-02 1.650352e-02 -3.107807e-02 -2.169204e-02 3.094931e-02 1.542526e-02 1.289366e-02 1.924758e-02 -8.514496e-03 -7.227622e-05 -4.440399e-03 5.170718e-03
<VARIANCE> 39
 9.918001e-02 2.062725e-01 2.294137e-01 2.896573e-01 4.528308e-01 3.453697e-01 3.418742e-01 2.549470e-01 2.738929e-01 3.146464e-01 2.863932e-01 1.645948e-01 1.114232e-02 1.431720e-02 2.363899e-02 3.513384e-02 3.792543e-02 4.065982e-02 3.820599e-02 4.022125e-02 3.959678e-02 4.016433e-02 3.774950e-02 3.293343e-02 2.138860e-02 1.169966e-03 1.093155e-03 2.195612e-03 3.564754e-03 3.572975e-03 4.843438e-03 4.080472e-03 4.003355e-03 3.695111e-03 4.111895e-03 4.016053e-03 3.308711e-03 2.644733e-03 8.509240e-05
<GCONST> -7.543738e+01
<MIXTURE> 4 1.847297e-01
<MEAN> 39
 3.015344e-01 -2.124706e-01 -5.973456e-01 -5.469805e-01 -2.771930e-01 -4.075938e-01 -1.317884e-01 1.615800e-01 3.593537e-01 3.921677e-01 7.075927e-02 -2.222945e-02 7.719001e-01 7.346935e-02 -1.375286e-01 -3.024219e-02 -2.884845e-01 -1.118940e-01 1.086853e-01 8.523087e-02 4.945862e-02 1.089006e-01 8.380972e-05 6.269570e-02 -4.970596e-02 6.103990e-02 1.408335e-02 -1.564566e-02 2.064872e-02 2.679797e-02 3.994150e-02 5.639942e-02 1.262647e-02 -3.054867e-02 -4.701942e-02 -3.316987e-02 -1.336841e-02 -1.720813e-02 -7.194747e-03
<VARIANCE> 39
 1.304126e-01 2.580912e-01 3.176395e-01 4.761756e-01 5.073113e-01 5.610818e-01 5.358102e-01 4.617596e-01 3.886760e-01 4.184787e-01 5.249364e-01 3.914354e-01 8.047840e-03 1.648216e-02 2.578021e-02 3.298519e-02 4.425885e-02 5.867789e-02 5.249574e-02 5.197729e-02 5.179968e-02 4.589198e-02 4.110412e-02 3.998059e-02 3.335359e-02 1.110470e-03 2.669248e-03 3.178754e-03 4.866689e-03 7.574018e-03 7.885175e-03 7.403598e-03 7.631226e-03 8.461979e-03 7.121715e-03 6.522171e-03 7.369080e-03 5.906502e-03 2.158387e-04
<GCONST> -5.990841e+01
<TRANSP> 5
 0.000000e+00 1.000000e+00 0.000000e+00 0.000000e+00 0.000000e+00
 0.000000e+00 6.515068e-01 3.484932e-01 0.000000e+00 0.000000e+00
 0.000000e+00 0.000000e+00 6.047355e-01 3.952645e-01 0.000000e+00
 0.000000e+00 0.000000e+00 0.000000e+00 2.229455e-01 7.770545e-01
 0.000000e+00 0.000000e+00 0.000000e+00 0.000000e+00 0.000000e+00
<ENDHMM>
~h "h"
<BEGINHMM>
<NUMSTATES> 5
<STATE> 2
<NUMMIXES> 4
<MIXTURE> 1 1.770054e-01
<MEAN> 39
 5.048783e-01 -4.043461e-01 -5.417267e-01 -2.440746e-01 1.486963e-02 -4.784135e-02 -5.824198e-01 1.096632e-03 3.775010e-01 4.798595e-01 8.743087e-03 -2.926051e-01 7.894524e-01 4.323460e-02 9.002634e-02 -8.714352e-02 -4.886709e-02 1.381120e-01 1.725165e-01 2.475069e-02 -1.660257e-01 -1.156405e-01 4.728301e-02 5.321876e-02 -2.841070e-02 -1.510439e-02 -2.112651e-02 2.544155e-02 3.601295e-02 9.836409e-03 -2.390703e-02 -1.373259e-02 4.259427e-02 7.231418e-03 -3.919439e-02 -5.382501e-02 5.271961e-03 3.796696e-02 -4.178316e-03
<VARIANCE> 39
 7.144447e-02 2.044108e-01 2.375828e-01 3.123651e-01 3.933702e-01 4.286382e-01 3.051068e-01 3.677572e-01 3.573153e-01 3.333483e-01 3.387643e-01 1.873634e-01 9.774079e-03 5.284464e-03 8.551337e-03 1.662141e-02 1.572116e-02 2.272267e-02 2.302768e-02 2.650302e-02 2.400888e-02 2.672398e-02 2.632717e-02 2.002713e-02 1.974835e-02 3.375158e-04 9.794191e-04 1.602880e-03 2.443159e-03 3.155823e-03 4.184015e-03 4.859690e-03 4.161171e-03 5.823733e-03 5.517175e-03 4.278286e-03 4.972147e-03 2.894502e-03 6.163472e-05
<GCONST> -8.295460e+01
<MIXTURE> 2 3.717491e-01
<MEAN> 39
 3.967717e-01 1.856954e-01 -6.612617e-01 -4.893168e-01 2.196182e-01 5.107350e-01 4.575228e-02 -2.666425e-01 -1.508573e-01 3.015309e-02 8.216500e-02 -3.756164e-02 6.531252e-01 -8.926247e-02 9.047200e-02 -2.431212e-02 6.004280e-02 5.839794e-02 -2.164068e-03 3.607570e-02 1.796295e-02 8.017712e-03 -8.359645e-02 -2.261961e-02 1.975603e-02 -2.629530e-02 -1.201139e-02 -1.432853e-02 5.012535e-03 1.022291e-02 4.422848e-03 -1.129109e-02 -2.033335e-02 1.386401e-02 1.804264e-02 1.174072e-03 -2.217670e-03 -1.156248e-02 1.705118e-03
<VARIANCE> 39
 1.248251e-01 2.790941e-01 2.222015e-01 3.789104e-01 3.429707e-01 3.437739e-01 3.261208e-01 2.989504e-01 3.056672e-01 2.859320e-01 2.456126e-01 1.886271e-01 2.561442e-02 8.945461e-03 1.644149e-02 1.655339e-02 2.234755e-02 2.390981e-02 2.397712e-02 2.576476e-02 2.711544e-02 2.818214e-02 2.322843e-02 2.018281e-02 1.609276e-02 5.007266e-04 1.121684e-03 1.748893e-03 2.184173e-03 2.718034e-03 3.073430e-03 3.684602e-03 3.385524e-03 3.806431e-03 3.877585e-03 3.452621e-03 3.226114e-03 2.486780e-03 6.117488e-05
<GCONST> -8.269475e+01
<MIXTURE> 3 2.867780e-01
<MEAN> 39
 4.572488e-01 1.734448e-01 -5.100290e-01 -1.214495e-01 4.796158e-01 3.449740e-01 -3.675289e-01 -4.888668e-01 -3.870662e-01 -2.529780e-01 -1.109190e-01 -1.990485e-01 7.127075e-01 -1.199910e-01 6.292373e-02 -2.720042e-02 1.001274e-01 5.787209e-02 3.135700e-03 -1.383760e-02 9.676206e-03 -3.301679e-02 -3.150342e-02 -9.205050e-04 2.276180e-02 -3.434142e-02 -2.343673e-02 -3.348998e-02 -2.200002e-02 -2.445831e-02 -1.515552e-02 -1.270890e-02 1.729052e-02 4.061992e-02 4.951803e-02 3.226515e-02 1.743953e-02 1.098130e-02 -4.253081e-03
<VARIANCE> 39
 1.084973e-01 3.091102e-01 2.534986e-01 3.782224e-01 3.938185e-01 3.702218e-01 3.205633e-01 3.467279e-01 3.624055e-01 3.549940e-01 2.793504e-01 2.136629e-01 1.362909e-02 9.147394e-03 1.880341e-02 1.965473e-02 2.708836e-02 2.970316e-02 2.541457e-02 2.756970e-02 3.316395e-02 3.245489e-02 2.931986e-02 2.313483e-02 1.796663e-02 4.408638e-04 1.396565e-03 1.662712e-03 2.336352e-03 3.117934e-03 3.651962e-03 3.682312e-03 3.809976e-03 4.933871e-03 4.314891e-03 4.211708e-03 3.737905e-03 2.898534e-03 7.020350e-05
<GCONST> -7.902570e+01
<MIXTURE> 4 1.644210e-01
<MEAN> 39
 3.083092e-01 -2.826375e-01 -3.280830e-01 -4.247239e-02 9.687920e-02 -4.168915e-01 -3.085182e-01 5.766932e-02 3.917998e-01 9.865388e-02 -1.832517e-01 1.442003e-02 7.158328e-01 -3.486669e-02 2.565551e-02 -1.254845e-01 6.515256e-02 2.266199e-01 1.096493e-01 -7.679634e-02 -1.311790e-01 -3.259072e-02 1.601894e-02 1.975868e-02 -2.617262e-02 -2.461212e-02 -1.983617e-02 1.350143e-02 1.379044e-02 -7.428059e-03 -1.224439e-02 3.265774e-02 1.149225e-02 -1.551838e-02 -3.602505e-02 6.275438e-04 2.680387e-02 -1.152739e-03 -1.343362e-03
<VARIANCE> 39
 1.043579e-01 2.172774e-01 2.796237e-01 3.788370e-01 5.042081e-01 3.886857e-01 3.755900e-01 4.357494e-01 3.166028e-01 4.396125e-01 3.108853e-01 2.384503e-01 1.664460e-02 1.036573e-02 1.805007e-02 2.568283e-02 2.581546e-02 3.709496e-02 3.035224e-02 3.454095e-02 3.502343e-02 3.950614e-02 3.593058e-02 2.956889e-02 2.241717e-02 4.838806e-04 1.376538e-03 2.209488e-03 3.107668e-03 4.581456e-03 5.686705e-03 5.262394e-03 5.431341e-03 8.042595e-03 5.218019e-03 6.700661e-03 5.641256e-03 4.065828e-03 8.571718e-05
<GCONST> -7.200929e+01
<STATE> 3
<NUMMIXES> 4
<MIXTURE> 1 2.313481e-01
<MEAN> 39
 -3.893396e-02 3.757362e-01 -7.919782e-01 -2.067219e-01 5.989820e-01 4.909270e-01 -4.155595e-02 -1.717673e-01 -7.855776e-02 -1.895888e-01 4.753237e-02 -5.113751e-02 5.548984e-01 -5.012009e-03 -1.876850e-04 2.697138e-02 2.592144e-02 5.164833e-02 3.358962e-02 1.121268e-02 -1.025316e-02 -3.444432e-02 -3.502141e-02 -1.806253e-02 -1.207744e-02 -1.039460e-02 5.432315e-02 -1.669592e-02 7.308982e-03 -4.437286e-02 -4.300512e-02 -1.023166e-02 -1.298899e-02 -1.413055e-02 2.401149e-03 3.045854e-02 1.072901e-02 -5.207359e-03 1.536410e-02
<VARIANCE> 39
 1.485561e-01 3.002293e-01 2.182579e-01 2.875606e-01 4.736632e-01 3.548376e-01 3.683247e-01 3.924836e-01 3.745790e-01 3.456665e-01 2.700561e-01 1.941216e-01 1.540762e-02 4.625760e-03 9.945524e-03 8.794752e-03 1.291988e-02 1.456772e-02 1.469755e-02 1.410096e-02 1.753408e-02 1.662988e-02 1.608698e-02 1.386967e-02 9.751706e-03 3.371409e-04 1.028261e-03 2.670894e-03 2.428628e-03 3.749325e-03 4.253697e-03 3.930488e-03 4.242372e-03 4.647569e-03 4.618488e-03 3.945292e-03 3.737207e-03 2.600354e-03 1.405915e-04
<GCONST> -8.560622e+01
<MIXTURE> 2 2.563692e-01
<MEAN> 39
 -2.288118e-01 -1.326876e-01 -3.681896e-01 3.434091e-01 8.791800e-01 3.013185e-01 -2.212269e-01 -3.309144e-01 -1.182044e-01 -1.886809e-01 -1.836456e-02 7.501505e-03 5.154252e-01 -4.131231e-02 -2.217081e-02 -2.214725e-02 8.297442e-03 4.103560e-02 3.619906e-02 1.619504e-02 6.399895e-03 1.683631e-02 2.035507e-02 1.458518e-02 -9.135584e-03 -1.055079e-02 2.216730e-02 -5.779181e-03 -1.345749e-02 -2.533867e-02 -2.455234e-02 -4.884492e-04 1.024704e-02 1.260794e-02 1.162094e-02 1.256523e-02 3.774632e-03 -5.313323e-03 4.005450e-03
<VARIANCE> 39
 1.794794e-01 3.972703e-01 3.162257e-01 3.172643e-01 3.932484e-01 3.420993e-01 3.611660e-01 3.508600e-01 3.189660e-01 3.323612e-01 2.267312e-01 1.587420e-01 3.601215e-02 5.971204e-03 9.628200e-03 1.227729e-02 1.298907e-02 1.580853e-02 1.412896e-02 1.580278e-02 1.933693e-02 1.825037e-02 1.599225e-02 1.290149e-02 9.202926e-03 4.120940e-04 8.811770e-04 1.427566e-03 2.021302e-03 2.235457e-03 2.616517e-03 2.382878e-03 2.691918e-03 3.005779e-03 3.036945e-03 2.784998e-03 2.287591e-03 1.585678e-03 5.822428e-05
<GCONST> -8.976901e+01
<MIXTURE> 3 2.827765e-01
<MEAN> 39
 -8.573153e-02 2.951507e-01 -9.673398e-01 -2.946019e-01 4.237619e-01 3.433055e-01 -8.530799e-02 1.256191e-01 1.551303e-01 9.169862e-02 1.576356e-01 -1.537596e-01 5.267134e-01 -5.710693e-02 -2.909733e-03 -9.608206e-03 3.519172e-02 3.831759e-02 7.471194e-03 7.718969e-03 2.235832e-02 -1.481174e-03 -8.556229e-03 3.430494e-03 -1.277245e-04 -2.276653e-02 3.585877e-02 -1.068462e-02 3.310674e-02 5.047782e-04 6.627332e-03 8.417492e-03 -8.332649e-03 -3.945526e-02 -3.197191e-02 -1.816615e-02 -1.542403e-02 2.528979e-03 9.055564e-03
<VARIANCE> 39
 1.553256e-01 3.613994e-01 2.526283e-01 3.132849e-01 4.915835e-01 3.335584e-01 3.335232e-01 3.951521e-01 3.512988e-01 3.465686e-01 2.482068e-01 1.870070e-01 1.621092e-02 5.655080e-03 1.031571e-02 1.033847e-02 1.410499e-02 1.475294e-02 1.351855e-02 1.422940e-02 1.898589e-02 1.715085e-02 1.588838e-02 1.354458e-02 9.427210e-03 3.810119e-04 9.136124e-04 1.964501e-03 1.814599e-03 2.569434e-03 2.886949e-03 2.830240e-03 3.168497e-03 3.682418e-03 3.255976e-03 3.192677e-03 2.840377e-03 2.127923e-03 9.747940e-05
<GCONST> -8.854389e+01
<MIXTURE> 4 2.294482e-01
<MEAN> 39
 -1.404337e-01 2.704979e-02 -4.014132e-01 3.392880e-01 8.476867e-01 2.589301e-01 -2.817030e-01 -3.256076e-01 -1.522488e-01 -2.271427e-01 -7.205241e-02 -7.690051e-02 5.540244e-01 -7.389534e-02 -2.937977e-02 -2.428191e-02 1.578693e-02 4.070542e-02 1.462075e-02 1.137389e-03 1.515173e-02 2.917389e-02 2.649181e-02 2.779754e-02 9.469502e-03 -2.022032e-02 1.818729e-02 -1.677480e-02 -1.268453e-02 -3.120317e-02 -2.486166e-02 3.027756e-03 1.367050e-02 1.087094e-02 1.291115e-02 1.473624e-02 8.725020e-03 1.884725e-03 1.899342e-03
<VARIANCE> 39
 1.567568e-01 4.024294e-01 3.087308e-01 3.132990e-01 4.083173e-01 3.643046e-01 3.764105e-01 3.610568e-01 3.444068e-01 3.392274e-01 2.468513e-01 1.721558e-01 2.866069e-02 7.465777e-03 1.141726e-02 1.309993e-02 1.400760e-02 1.593805e-02 1.423002e-02 1.593845e-02 1.996461e-02 1.874673e-02 1.702752e-02 1.380737e-02 9.833868e-03 4.137399e-04 9.205990e-04 1.627914e-03 1.912537e-03 2.215117e-03 2.666605e-03 2.563207e-03 2.866184e-03 3.207029e-03 3.233342e-03 2.948315e-03 2.529343e-03 1.773516e-03 5.809357e-05
<GCONST> -8.824499e+01
<STATE> 4
<NUMMIXES> 4
<MIXTURE> 1 2.437454e-01
<MEAN> 39
 1.478204e-01 3.474226e-01 -7.761629e-01 -1.758780e-01 4.919148e-01 4.316145e-01 -6.020427e-03 -3.539056e-02 -3.322462e-01 -1.183111e-01 -5.159703e-02 -1.188018e-01 5.049336e-01 1.890038e-01 1.229325e-02 1.427402e-02 -2.277374e-01 -1.719088e-01 -4.808931e-02 -8.426116e-02 -8.180405e-02 3.957541e-02 9.061077e-02 8.496140e-02 1.951511e-02 6.135805e-02 3.590570e-02 -1.728016e-02 -1.315211e-02 -7.581485e-02 -4.506707e-02 -3.077522e-03 -2.845514e-02 -1.136446e-02 5.244466e-02 4.795997e-02 2.887675e-02 -3.417137e-03 2.394821e-02
<VARIANCE> 39
 1.313565e-01 2.425386e-01 1.982608e-01 2.812751e-01 4.532958e-01 2.904660e-01 3.068326e-01 3.527953e-01 3.059389e-01 3.108044e-01 2.375853e-01 1.781310e-01 1.653570e-02 1.189485e-02 2.112137e-02 2.022835e-02 3.151422e-02 3.492394e-02 2.884000e-02 2.886759e-02 3.698106e-02 3.549759e-02 2.747440e-02 2.329013e-02 1.694135e-02 1.706662e-03 1.421113e-03 3.353375e-03 2.620523e-03 4.508005e-03 5.345321e-03 4.801979e-03 4.700516e-03 5.448697e-03 5.569363e-03 4.834519e-03 4.364869e-03 3.148399e-03 1.476813e-04
<GCONST> -7.433913e+01
<MIXTURE> 2 2.325701e-01
<MEAN> 39
 -5.072793e-01 -3.944857e-01 -8.018978e-01 4.881185e-02 8.949003e-01 4.511090e-01 -5.609813e-02 -1.316238e-01 2.340517e-01 3.267643e-02 2.072579e-01 4.174430e-02 4.489732e-01 1.546474e-01 3.209325e-02 2.474362e-02 -6.586783e-02 -8.550087e-02 -3.107485e-02 -3.559243e-02 -7.844676e-02 -6.783852e-02 -9.585137e-03 -1.496142e-02 5.555242e-03 3.605917e-02 7.897572e-02 2.923241e-02 2.391013e-03 -4.822175e-02 -5.623862e-02 -1.718756e-02 -1.137095e-02 -8.443661e-03 -6.619083e-03 4.736771e-03 -8.365838e-03 -1.140158e-02 2.383901e-02
<VARIANCE> 39
 1.728863e-01 4.838632e-01 4.112060e-01 5.105231e-01 4.975853e-01 3.696205e-01 4.123450e-01 4.679548e-01 2.989409e-01 3.988875e-01 2.310872e-01 1.914063e-01 1.830434e-02 1.602151e-02 1.700715e-02 1.902837e-02 1.988382e-02 2.221492e-02 2.015407e-02 2.459991e-02 2.594913e-02 2.080853e-02 1.748350e-02 1.388942e-02 1.141302e-02 1.327520e-03 1.411718e-03 2.924271e-03 4.166318e-03 4.122751e-03 4.174246e-03 3.739675e-03 4.798476e-03 5.305251e-03 3.796819e-03 3.568002e-03 2.976507e-03 2.283647e-03 1.941003e-04
<GCONST> -7.606863e+01
<MIXTURE> 3 2.795939e-01
<MEAN> 39
 1.273531e-01 1.047356e-01 -4.653457e-01 -2.728270e-02 6.773002e-01 4.499313e-01 -2.470535e-01 -5.108267e-01 -2.101310e-01 -2.379820e-01 -8.409049e-03 -8.346654e-02 6.227204e-01 1.428410e-01 -4.257425e-02 -8.803549e-02 -1.529449e-01 -1.040412e-01 1.738596e-02 3.378448e-02 -1.176854e-02 2.018794e-02 5.587986e-02 2.652899e-02 -3.848967e-03 3.290473e-02 2.325824e-02 -3.625975e-02 -3.992366e-02 -5.134300e-02 -4.266509e-02 -5.785891e-03 1.236415e-02 2.659725e-02 4.091973e-02 3.892590e-02 1.955762e-02 -1.990132e-03 1.302037e-02
<VARIANCE> 39
 1.309632e-01 3.395791e-01 2.244537e-01 3.830281e-01 4.594413e-01 3.700619e-01 4.125664e-01 3.574144e-01 2.963180e-01 3.188302e-01 2.546651e-01 1.924709e-01 1.653813e-02 1.132634e-02 2.126050e-02 2.308212e-02 2.771494e-02 3.407004e-02 3.069055e-02 3.109846e-02 3.409471e-02 3.233949e-02 2.773868e-02 2.158598e-02 1.571221e-02 1.062196e-03 1.518019e-03 2.614740e-03 2.857256e-03 4.141971e-03 5.209892e-03 4.364729e-03 4.739984e-03 5.257075e-03 4.605885e-03 4.076706e-03 3.541546e-03 2.685447e-03 1.305334e-04
<GCONST> -7.476636e+01
<MIXTURE> 4 2.440442e-01
<MEAN> 39
 -5.865387e-01 -4.846523e-01 -6.962010e-01 1.866999e-01 8.920252e-01 4.668828e-01 6.824313e-02 1.270651e-01 4.385605e-01 9.803692e-02 1.254205e-01 -7.886878e-02 3.978269e-01 -8.034032e-03 -7.750286e-02 -7.462215e-02 -3.996635e-02 -9.096544e-03 5.807314e-03 7.333111e-03 1.550346e-03 3.300557e-02 7.720068e-03 1.750365e-02 9.750741e-03 1.777734e-02 3.409310e-02 2.228172e-02 1.406635e-02 -5.978703e-03 -1.916016e-02 -1.247204e-02 -4.416385e-03 -2.143431e-02 -3.312968e-02 -1.226657e-02 -6.615559e-03 8.912117e-03 6.969485e-03
<VARIANCE> 39
 2.314726e-01 4.839087e-01 4.659841e-01 5.090097e-01 4.870608e-01 3.572509e-01 3.938762e-01 4.556178e-01 3.123440e-01 3.221296e-01 2.084324e-01 1.734595e-01 3.674556e-02 1.283555e-02 1.965784e-02 2.207833e-02 1.903279e-02 1.949838e-02 1.976878e-02 2.244544e-02 2.470376e-02 2.520652e-02 1.763111e-02 1.428428e-02 1.106761e-02 7.788265e-04 2.726932e-03 3.187028e-03 3.890581e-03 3.738594e-03 3.827539e-03 3.492387e-03 4.285897e-03 4.610727e-03 3.855741e-03 3.082108e-03 2.499291e-03 1.906486e-03 1.951615e-04
<GCONST> -7.636664e+01
<TRANSP> 5
 0.000000e+00 1.000000e+00 0.000000e+00 0.000000e+00 0.000000e+00
 0.000000e+00 7.439182e-01 2.560818e-01 0.000000e+00 0.000000e+00
 0.000000e+00 0.000000e+00 7.688413e-01 2.311587e-01 0.000000e+00
 0.000000e+00 0.000000e+00 0.000000e+00 6.537725e-01 3.462274e-01
 0.000000e+00 0.000000e+00 0.000000e+00 0.000000e+00 0.000000e+00
<ENDHMM>
~h "j"
<BEGINHMM>
<NUMSTATES> 5
<STATE> 2
<NUMMIXES> 4
<MIXTURE> 1 1.793526e-01
<MEAN> 39
 -2.573192e-01 2.922498e-01 1.047697e-01 3.437133e-01 2.698619e-01 9.118772e-02 1.383171e-01 1.883071e-02 -1.052165e-01 -2.652721e-02 -2.225677e-02 -8.183885e-03 3.442097e-01 -2.380898e-01 6.296062e-02 -9.834671e-02 4.806238e-02 -3.441883e-02 1.214043e-02 -2.549622e-02 -3.062071e-02 9.656972e-02 -7.384082e-03 3.491490e-02 5.517757e-02 5.286929e-03 -5.990353e-02 3.355667e-02 -5.976645e-03 -2.847497e-04 -1.205874e-02 4.309737e-04 -2.279352e-03 -1.819126e-02 8.181358e-03 -5.301504e-03 -2.956110e-03 8.899305e-03 1.454794e-02
<VARIANCE> 39
 3.058093e-01 2.642552e-01 2.669815e-01 2.977128e-01 4.539959e-01 3.356566e-01 2.887185e-01 2.538349e-01 2.718222e-01 1.944827e-01 1.633309e-01 1.062572e-01 3.891720e-02 3.222232e-02 3.275248e-02 2.828723e-02 2.647995e-02 2.840213e-02 2.664514e-02 2.510318e-02 2.456811e-02 2.516829e-02 1.874782e-02 1.637802e-02 1.159070e-02 1.697933e-03 3.851570e-03 3.536639e-03 3.510836e-03 3.224541e-03 3.626936e-03 3.460907e-03 3.617954e-03 3.612809e-03 4.181911e-03 3.136368e-03 2.672566e-03 1.678965e-03 1.856270e-04
<GCONST> -7.661137e+01
<MIXTURE> 2 2.983378e-01
<MEAN> 39
 6.744202e-01 1.643732e-01 2.310662e-01 -1.380174e-01 -3.483459e-01 -5.510820e-01 -1.605816e-01 4.547416e-02 -9.599326e-02 9.213600e-02 -1.124418e-01 -9.154886e-02 7.086192e-01 -6.677888e-02 1.611781e-01 -1.188105e-02 5.429422e-02 3.851099e-02 2.017574e-02 2.798126e-02 -4.004552e-02 -2.135695e-02 -3.767944e-02 -2.508765e-02 -2.671933e-02 -2.529247e-02 -9.754699e-02 3.985718e-02 -4.177512e-02 2.625560e-02 7.143280e-03 2.614081e-02 5.566239e-04 -1.889777e-02 2.469034e-02 -1.844783e-02 1.262018e-03 2.114981e-02 -3.952545e-04
<VARIANCE> 39
 9.622313e-02 2.270862e-01 2.657396e-01 2.017413e-01 3.223974e-01 2.884485e-01 3.219500e-01 3.845578e-01 3.091497e-01 2.871132e-01 2.450404e-01 2.031706e-01 1.409145e-02 2.421846e-02 1.584135e-02 1.772195e-02 1.789441e-02 2.189067e-02 2.192064e-02 2.345120e-02 2.320858e-02 2.616950e-02 2.325205e-02 1.946414e-02 1.960661e-02 4.429391e-04 3.684556e-03 2.945146e-03 3.271372e-03 3.456101e-03 4.187232e-03 4.053941e-03 4.043363e-03 5.068262e-03 4.791985e-03 4.912090e-03 3.976773e-03 3.848127e-03 8.514970e-05
<GCONST> -7.901432e+01
<MIXTURE> 3 2.472133e-01
<MEAN> 39
 6.133015e-01 5.710589e-01 4.784302e-01 -1.859719e-02 -3.773941e-01 -3.545874e-01 -1.294396e-01 -2.038505e-01 -4.049304e-01 -2.079256e-01 -3.815313e-01 -3.281221e-01 7.104075e-01 -1.332058e-01 1.339983e-01 -6.510786e-02 1.179106e-01 4.002792e-02 2.577445e-02 -8.713442e-03 -2.847026e-02 -7.785807e-03 -5.327584e-02 -1.531372e-02 3.423784e-03 -3.081752e-02 -1.072774e-01 1.214008e-02 -5.251432e-02 1.682730e-02 -6.106245e-03 4.885123e-03 -8.787286e-04 -6.894159e-03 5.199726e-02 1.221170e-02 3.590235e-02 5.582160e-02 -3.768702e-03
<VARIANCE> 39
 1.244621e-01 2.647142e-01 3.189465e-01 2.733535e-01 3.515049e-01 2.747381e-01 3.096483e-01 3.331900e-01 3.252773e-01 3.059965e-01 2.581944e-01 2.049910e-01 1.526394e-02 3.007870e-02 2.277953e-02 2.408777e-02 2.703690e-02 2.610440e-02 2.472200e-02 2.428871e-02 2.537977e-02 3.102605e-02 2.661430e-02 2.347717e-02 2.287924e-02 5.343411e-04 3.220571e-03 3.418680e-03 3.566614e-03 4.296658e-03 4.346376e-03 4.038604e-03 4.312650e-03 4.692610e-03 5.165729e-03 5.119178e-03 4.162524e-03 3.294217e-03 1.052092e-04
<GCONST> -7.489346e+01
<MIXTURE> 4 2.750004e-01
<MEAN> 39
 3.551749e-02 8.901165e-01 1.272978e-01 3.010485e-01 -3.832089e-01 -3.524764e-01 -8.841225e-02 -1.957173e-01 -1.734830e-01 -2.285051e-01 -1.899385e-01 -6.806396e-02 6.149752e-01 -3.018294e-01 2.021940e-01 -1.049969e-01 1.295067e-01 5.422069e-02 5.041706e-02 -2.245530e-04 -6.872796e-02 4.753460e-02 -6.326532e-02 -6.909088e-03 6.556817e-02 -2.314654e-02 -5.190037e-02 -1.792642e-02 2.057423e-02 -2.267758e-02 3.641024e-03 9.033389e-03 -3.822082e-03 -9.202190e-03 9.795371e-03 1.038333e-02 1.091707e-02 2.065379e-02 6.628931e-03
<VARIANCE> 39
 1.366756e-01 2.704626e-01 3.439591e-01 2.395010e-01 4.410361e-01 2.984332e-01 3.030848e-01 2.975477e-01 2.910416e-01 2.458673e-01 2.056851e-01 1.231852e-01 1.984807e-02 2.938206e-02 3.179455e-02 2.763284e-02 2.811843e-02 2.732823e-02 2.595231e-02 2.514069e-02 2.531732e-02 2.608352e-02 2.463904e-02 2.231785e-02 1.768622e-02 4.629712e-04 2.878574e-03 3.394902e-03 2.700724e-03 3.045843e-03 4.076694e-03 3.695218e-03 3.940952e-03 3.737160e-03 4.046598e-03 3.775381e-03 3.231815e-03 1.974462e-03 9.641448e-05
<GCONST> -7.816621e+01
<STATE> 3
<NUMMIXES> 4
<MIXTURE> 1 2.177475e-01
<MEAN> 39
 -9.396481e-01 9.027663e-01 -5.686821e-01 4.464687e-01 -1.774333e-01 -1.740363e-01 1.204469e-01 -1.152148e-01 3.552193e-01 2.048780e-02 -5.498298e-03 1.586654e-01 5.052863e-01 -3.699072e-01 1.778349e-01 -4.876198e-02 1.472568e-02 -6.870645e-03 3.281712e-02 1.505113e-02 -7.834780e-02 6.378663e-02 -1.244178e-03 2.575899e-02 6.767333e-02 2.730319e-02 6.390244e-02 -5.352754e-02 1.034034e-01 -4.927998e-02 -1.332602e-03 3.796830e-03 -7.824961e-03 -2.503324e-03 -5.441046e-02 -6.071663e-03 -3.539245e-03 -1.354693e-02 1.048268e-02
<VARIANCE> 39
 2.708462e-01 4.201948e-01 2.848855e-01 3.499531e-01 4.627563e-01 3.436396e-01 2.708432e-01 2.498905e-01 2.285275e-01 2.006998e-01 1.825014e-01 1.018966e-01 2.365594e-02 1.839049e-02 2.334456e-02 2.768378e-02 2.312333e-02 2.641018e-02 2.153973e-02 2.325847e-02 2.282836e-02 2.478065e-02 1.992991e-02 1.773175e-02 1.131457e-02 2.358194e-03 4.122288e-03 7.028195e-03 4.059821e-03 5.305399e-03 5.002921e-03 4.841355e-03 4.738719e-03 4.563374e-03 4.177016e-03 3.790223e-03 3.514678e-03 2.134554e-03 1.813692e-04
<GCONST> -7.447485e+01
<MIXTURE> 2 2.543392e-01
<MEAN> 39
 -1.200302e+00 1.534023e+00 -1.283319e-01 5.283565e-01 -5.297582e-02 -2.287368e-01 -1.762897e-02 -5.959076e-01 -6.992628e-02 -3.629024e-01 -2.786390e-01 2.178481e-01 6.362386e-01 -1.949211e-01 -2.035465e-02 1.304305e-01 -9.844705e-02 -1.880311e-02 4.887342e-02 9.858686e-03 -3.316317e-02 6.729017e-03 3.222024e-02 6.507128e-02 4.919977e-02 1.012102e-02 1.623128e-01 -1.414965e-01 7.086702e-02 -9.016965e-02 -8.513846e-02 -2.789661e-02 -7.091305e-03 6.063203e-02 3.134090e-03 4.855107e-02 3.296331e-02 -2.587054e-02 7.826227e-03
<VARIANCE> 39
 1.814340e-01 1.708222e-01 3.042538e-01 3.257222e-01 3.489435e-01 2.603677e-01 2.827630e-01 2.952696e-01 2.746840e-01 2.614158e-01 1.944416e-01 9.329021e-02 1.204433e-02 2.721722e-02 2.501554e-02 2.022843e-02 1.924701e-02 2.193042e-02 2.021410e-02 2.176781e-02 2.156458e-02 2.329597e-02 2.193341e-02 1.940136e-02 8.864948e-03 7.549451e-04 3.891652e-03 5.001561e-03 4.197635e-03 6.830916e-03 5.345287e-03 4.562349e-03 5.418553e-03 5.678682e-03 5.830375e-03 5.401578e-03 4.342757e-03 2.445959e-03 1.915603e-04
<GCONST> -7.671267e+01
<MIXTURE> 3 2.723995e-01
<MEAN> 39
 -1.274852e+00 1.357915e+00 1.742030e-01 4.588600e-01 1.412442e-02 -6.928149e-02 -1.557201e-01 -5.078799e-01 -9.218413e-02 -3.198919e-01 -1.426847e-01 1.960830e-01 6.121455e-01 -1.540913e-01 -4.141093e-02 1.038946e-01 -2.953032e-02 2.876537e-02 8.583727e-02 9.466708e-03 -4.563722e-02 -2.292020e-02 -6.085985e-03 2.271046e-02 1.447010e-02 1.445445e-03 1.034401e-01 -6.557707e-02 2.555859e-02 -4.241123e-02 -5.249076e-02 -2.682685e-02 3.063151e-03 2.140419e-02 6.481307e-05 2.193629e-02 8.944138e-03 -1.213400e-02 3.360828e-03
<VARIANCE> 39
 1.719641e-01 1.818044e-01 3.162300e-01 3.133611e-01 3.417358e-01 2.788039e-01 2.703649e-01 2.604048e-01 2.362079e-01 2.262982e-01 1.772092e-01 7.953866e-02 1.355478e-02 1.764575e-02 1.585520e-02 1.399094e-02 1.467715e-02 1.593780e-02 1.451424e-02 1.501703e-02 1.586820e-02 1.668032e-02 1.548823e-02 1.343844e-02 4.993293e-03 4.897955e-04 2.904879e-03 3.015054e-03 2.435681e-03 3.575295e-03 3.561606e-03 3.160818e-03 3.204584e-03 3.093548e-03 3.420248e-03 3.315727e-03 2.797877e-03 1.211857e-03 1.151810e-04
<GCONST> -8.873759e+01
<MIXTURE> 4 2.554344e-01
<MEAN> 39
 -5.879541e-01 1.208782e+00 -1.044432e-01 5.452835e-01 -2.205759e-01 -3.174515e-01 -1.595608e-01 -4.535964e-01 -5.289327e-02 -3.504258e-01 -2.512455e-01 1.660003e-01 5.949987e-01 -4.029379e-01 1.842108e-01 -5.202503e-02 8.831692e-02 7.296815e-02 6.933293e-02 2.622536e-03 -1.021642e-01 3.908302e-02 -5.731332e-02 3.151326e-03 1.056969e-01 -4.632290e-03 3.786550e-02 -6.987157e-02 6.603208e-02 -6.386117e-02 -2.288475e-02 6.024555e-03 7.703371e-03 1.940461e-02 -1.504224e-02 3.216296e-02 2.057040e-02 -1.865768e-02 1.033200e-02
<VARIANCE> 39
 1.327631e-01 3.421058e-01 2.863550e-01 2.985632e-01 3.963543e-01 3.181438e-01 2.848807e-01 2.586485e-01 2.498904e-01 2.325321e-01 2.015802e-01 1.091566e-01 1.752892e-02 1.920939e-02 2.350968e-02 2.500441e-02 2.338370e-02 2.684004e-02 2.216200e-02 2.301253e-02 2.363215e-02 2.556241e-02 2.335883e-02 2.145831e-02 1.303023e-02 7.823631e-04 2.618636e-03 5.050316e-03 3.199288e-03 4.688888e-03 4.776639e-03 4.617768e-03 4.494597e-03 4.059242e-03 4.366795e-03 4.206351e-03 3.758989e-03 2.183822e-03 9.541194e-05
<GCONST> -7.795520e+01
<STATE> 4
<NUMMIXES> 4
<MIXTURE> 1 1.978451e-01
<MEAN> 39
 -9.399610e-01 1.010874e+00 4.026856e-01 1.960818e-01 -5.535150e-01 -2.858019e-01 -1.936076e-02 -4.644103e-01 -1.508110e-01 -1.157647e-01 5.904796e-03 1.746268e-01 6.578029e-01 2.570867e-01 -3.261079e-01 1.135290e-01 -2.701420e-01 -2.697580e-01 -1.370149e-01 2.275932e-02 1.930303e-01 1.230787e-01 1.809707e-01 1.204388e-01 9.046116e-03 3.755236e-02 9.957752e-02 -8.550938e-02 -4.187355e-02 -3.875045e-02 -5.306660e-03 -9.362820e-03 3.190152e-04 6.048904e-02 3.734564e-02 1.298921e-02 -7.082650e-03 -1.367583e-02 1.072562e-02
<VARIANCE> 39
 1.895789e-01 2.328008e-01 3.260100e-01 2.743085e-01 3.606423e-01 2.516220e-01 2.473326e-01 2.556263e-01 2.548900e-01 2.491784e-01 1.971596e-01 1.016820e-01 9.626810e-03 2.608208e-02 2.698704e-02 2.939894e-02 4.235173e-02 3.273020e-02 3.205853e-02 3.540101e-02 3.349121e-02 3.265630e-02 3.429508e-02 2.470239e-02 1.576925e-02 9.306442e-04 5.502358e-03 6.241689e-03 5.339015e-03 5.282494e-03 6.615741e-03 4.653993e-03 5.625527e-03 5.467262e-03 5.832059e-03 5.698859e-03 4.460406e-03 2.653763e-03 9.081552e-05
<GCONST> -7.199275e+01
<MIXTURE> 2 2.763678e-01
<MEAN> 39
 -1.420405e+00 8.971172e-01 5.710392e-01 2.003412e-01 -1.600427e-02 3.019214e-01 -1.067899e-01 -4.809805e-01 -1.076435e-01 -3.369825e-01 -9.762263e-02 2.414679e-01 5.891864e-01 1.067359e-01 -1.362759e-01 1.503456e-01 -8.712842e-02 -2.163371e-01 -9.985389e-02 4.987246e-03 3.297050e-02 -2.027826e-02 6.509901e-02 7.915317e-02 7.124096e-03 2.142059e-02 1.660925e-01 -5.961812e-02 -2.179466e-02 -3.267694e-02 -7.703588e-02 -9.375969e-02 -1.119885e-02 5.374358e-02 1.172931e-02 4.037064e-02 2.007982e-02 -1.838652e-02 1.461627e-02
<VARIANCE> 39
 1.648686e-01 2.227267e-01 3.113773e-01 2.588431e-01 3.465403e-01 2.787837e-01 3.127503e-01 2.778875e-01 2.675747e-01 2.235904e-01 2.107923e-01 1.061891e-01 1.244847e-02 3.810132e-02 1.798929e-02 1.874246e-02 3.022982e-02 2.304260e-02 2.913213e-02 2.549598e-02 2.257279e-02 2.319841e-02 2.069463e-02 1.727926e-02 8.521067e-03 9.946648e-04 4.211360e-03 5.353983e-03 4.177927e-03 4.591195e-03 5.802092e-03 4.795854e-03 5.865837e-03 5.244182e-03 5.857269e-03 4.705389e-03 4.733810e-03 2.488128e-03 1.229934e-04
<GCONST> -7.612536e+01
<MIXTURE> 3 2.716365e-01
<MEAN> 39
 -1.798567e+00 6.500499e-01 -2.452385e-02 1.952296e-01 5.042300e-02 2.894523e-01 1.844122e-01 -1.687462e-01 2.941337e-01 8.457993e-02 1.649922e-01 1.587572e-01 5.496965e-01 9.023477e-02 -2.061674e-02 1.697136e-01 -1.131079e-01 -1.554567e-01 -8.350104e-02 -6.003771e-02 -5.334895e-02 -6.564011e-02 -1.407371e-02 1.593881e-02 2.471950e-02 3.159635e-02 1.593359e-01 -2.057960e-02 4.231098e-02 -2.055258e-02 -5.640576e-02 -6.097998e-02 -3.546026e-02 -2.355123e-03 -3.699250e-02 -1.842460e-02 -1.687653e-02 1.420792e-03 5.894518e-03
<VARIANCE> 39
 1.815492e-01 2.652431e-01 3.565416e-01 3.453719e-01 3.437914e-01 2.756360e-01 2.725168e-01 2.471390e-01 2.285283e-01 1.813087e-01 1.589749e-01 1.031008e-01 1.478605e-02 4.746293e-02 1.969962e-02 2.056639e-02 2.718293e-02 2.543775e-02 2.876359e-02 2.369025e-02 2.087419e-02 2.098913e-02 1.686722e-02 1.329996e-02 8.118737e-03 1.345271e-03 4.018984e-03 4.391219e-03 4.724526e-03 4.798442e-03 4.378758e-03 4.291538e-03 4.525350e-03 4.288666e-03 4.250716e-03 3.358510e-03 3.359787e-03 1.830791e-03 2.813291e-04
<GCONST> -7.770386e+01
<MIXTURE> 4 2.540873e-01
<MEAN> 39
 -9.446942e-01 1.028616e+00 5.121430e-01 -1.627959e-02 -5.749026e-01 -4.268833e-01 -1.999001e-01 -5.777951e-01 -8.549900e-02 -1.999952e-01 7.727221e-02 3.791737e-01 6.644260e-01 2.939735e-01 -1.870170e-01 1.924856e-01 -1.935030e-01 -2.567933e-01 -9.779053e-02 -7.153927e-02 4.728631e-02 -4.274533e-02 4.375497e-02 4.510048e-02 -5.748433e-03 4.419009e-02 5.439680e-02 -5.491043e-02 -3.023458e-02 -7.875214e-03 9.869288e-04 2.239358e-02 6.785859e-03 4.833031e-02 1.849144e-02 2.031570e-02 -1.154032e-02 -3.061846e-02 6.523488e-03
<VARIANCE> 39
